0.2
0.5
0.0
-0.4
-0.1
-0.2
-0.4
0.0
-0.1
-0.4
0.5
-0.4
-0.4
-0.4
0.1
-0.2
0.4
-0.1
-0.30000000000000004
-0.1
0.0
-0.2
-0.1
-0.30000000000000004
-0.2
-0.30000000000000004
-0.2
0.4
-0.2
0.4
0.2
-0.30000000000000004
0.0
0.1
-0.30000000000000004
-0.30000000000000004
-0.30000000000000004
0.0
0.30000000000000004
-0.1
0.30000000000000004
0.2
0.1
0.4
0.5
0.5
0.0
0.4
-0.4
-0.30000000000000004
0.5
0.1
0.1
-0.30000000000000004
0.30000000000000004
0.1
0.5
-0.30000000000000004
0.2
-0.30000000000000004
0.5
-0.1
-0.30000000000000004
-0.4
-0.1
0.4
0.0
-0.1
0.2
0.30000000000000004
-0.1
0.1
-0.1
0.5
-0.4
-0.4
-0.4
-0.30000000000000004
0.30000000000000004
0.30000000000000004
0.4
-0.4
0.5
0.2
-0.2
0.0
0.5
0.2
0.4
0.0
0.1
0.1
-0.30000000000000004
0.2
0.0
-0.1
0.4
-0.1
-0.4
0.30000000000000004
-0.30000000000000004
0.5
0.4
0.2
0.5
0.0
0.0
0.30000000000000004
0.0
-0.30000000000000004
0.4
0.2
0.5
0.1
-0.1
-0.30000000000000004
-0.2
0.30000000000000004
-0.30000000000000004
0.30000000000000004
0.5
0.30000000000000004
0.1
-0.2
-0.1
-0.30000000000000004
0.1
-0.2
0.2
0.1
0.5
-0.2
0.5
0.2
-0.1
0.30000000000000004
-0.4
0.2
0.30000000000000004
-0.2
0.4
0.1
0.2
0.5
-0.1
-0.4
-0.2
-0.4
-0.30000000000000004
0.30000000000000004
0.0
0.30000000000000004
-0.4
0.2
0.2
0.30000000000000004
0.0
0.2
0.30000000000000004
0.5
0.1
-0.1
0.30000000000000004
0.30000000000000004
0.30000000000000004
0.30000000000000004
0.1
0.0
-0.1
-0.2
0.2
0.0
-0.2
0.1
0.5
0.4
-0.1
0.4
0.30000000000000004
0.2
0.4
0.0
-0.1
0.1
0.5
-0.2
0.4
-0.30000000000000004
0.1
-0.4
-0.1
-0.30000000000000004
-0.2
0.2
0.0
0.2
0.5
0.0
-0.2
0.2
0.1
-0.30000000000000004
0.4
-0.30000000000000004
-0.30000000000000004
0.4
-0.4
0.2
-0.30000000000000004
-0.30000000000000004
0.2
-0.2
-0.30000000000000004
0.5
-0.4
-0.30000000000000004
0.0
0.4
0.4
0.4
0.1
0.5
-0.2
-0.2
0.4
-0.30000000000000004
0.30000000000000004
-0.4
-0.1
0.5
0.0
0.30000000000000004
-0.1
-0.30000000000000004
-0.2
0.30000000000000004
0.5
-0.4
-0.30000000000000004
0.5
0.1
-0.2
0.30000000000000004
0.4
0.5
0.1
0.30000000000000004
-0.1
-0.30000000000000004
0.1
-0.30000000000000004
0.30000000000000004
0.1
0.30000000000000004
0.5
-0.4
-0.1
0.0
-0.30000000000000004
-0.2
0.0
0.0
-0.2
-0.30000000000000004
-0.30000000000000004
0.30000000000000004
0.4
0.30000000000000004
0.30000000000000004
0.30000000000000004
0.4
0.2
0.1
0.2
0.4
0.1
-0.4
0.5
0.1
0.1
-0.4
0.0
0.30000000000000004
0.5
-0.4
-0.2
0.5
0.2
-0.1
0.0
0.1
0.4
0.5
0.5
0.0
0.5
-0.30000000000000004
-0.4
0.2
0.5
0.30000000000000004
0.1
-0.2
0.5
-0.30000000000000004
0.30000000000000004
0.1
-0.4
0.5
-0.2
0.30000000000000004
0.5
-0.4
-0.30000000000000004
0.0
0.5
0.1
-0.4
-0.4
0.4
0.2
0.0
0.0
0.1
0.0
0.4
0.4
0.30000000000000004
0.1
0.30000000000000004
0.1
0.1
-0.2
-0.2
0.5
0.4
0.5
-0.2
0.0
-0.1
-0.4
-0.2
0.5
-0.2
0.2
-0.30000000000000004
0.4
0.2
0.1
-0.30000000000000004
0.5
-0.4
0.2
-0.4
-0.4
0.0
-0.30000000000000004
0.4
0.1
-0.1
0.2
-0.1
-0.4
0.5
0.30000000000000004
-0.2
-0.4
-0.4
0.1
0.0
-0.4
0.30000000000000004
-0.2
0.2
0.30000000000000004
0.4
-0.2
-0.1
0.30000000000000004
-0.4
0.5
0.1
-0.4
-0.30000000000000004
0.4
0.2
-0.30000000000000004
-0.1
-0.30000000000000004
0.30000000000000004
0.2
0.5
0.2
-0.1
0.1
-0.1
0.1
-0.4
0.0
0.5
0.5
0.4
0.4
0.30000000000000004
-0.1
0.2
0.1
0.1
-0.1
0.0
-0.1
-0.30000000000000004
0.4
0.1
-0.30000000000000004
0.30000000000000004
0.1
-0.30000000000000004
0.1
-0.30000000000000004
-0.30000000000000004
0.30000000000000004
-0.1
-0.1
0.4
-0.1
0.2
0.5
0.0
-0.2
0.5
-0.30000000000000004
0.2
-0.30000000000000004
0.2
-0.30000000000000004
0.4
-0.4
0.0
0.2
0.5
-0.1
-0.1
0.0
0.1
-0.1
-0.30000000000000004
0.4
-0.1
0.30000000000000004
0.5
0.1
-0.2
-0.2
0.2
-0.2
-0.4
0.0
0.4
-0.1
-0.4
0.2
-0.30000000000000004
-0.4
0.4
-0.1
0.0
-0.2
0.0
0.4
-0.1
0.5
-0.30000000000000004
-0.4
0.4
-0.2
-0.4
-0.1
0.1
0.0
0.1
-0.1
-0.4
0.30000000000000004
-0.2
0.4
-0.30000000000000004
0.5
0.1
0.5
-0.4
-0.30000000000000004
-0.4
0.2
0.0
-0.2
-0.2
-0.30000000000000004
-0.30000000000000004
0.30000000000000004
0.0
-0.30000000000000004
0.4
0.30000000000000004
0.5
-0.2
-0.4
-0.4
0.4
-0.30000000000000004
-0.30000000000000004
0.2
0.0
-0.2
0.30000000000000004
-0.2
0.0
0.2
0.5
-0.2
0.5
-0.4
0.0
0.1
0.5
0.2
0.1
0.2
0.0
-0.1
0.2
0.0
0.1
-0.1
0.1
-0.2
0.2
0.0
0.1
0.1
-0.1
0.30000000000000004
-0.1
-0.1
0.0
-0.4
0.0
0.5
-0.4
-0.2
0.1
-0.30000000000000004
0.4
-0.2
0.1
-0.30000000000000004
-0.30000000000000004
-0.30000000000000004
-0.30000000000000004
0.1
-0.30000000000000004
0.1
0.0
-0.2
0.4
-0.1
0.5
-0.4
-0.2
-0.1
0.4
0.30000000000000004
0.4
-0.4
0.2
-0.4
-0.4
0.4
0.30000000000000004
0.1
0.1
-0.4
0.1
0.4
0.0
-0.30000000000000004
0.4
-0.30000000000000004
-0.2
-0.30000000000000004
0.0
-0.2
0.30000000000000004
0.5
-0.1
0.2
-0.4
0.2
0.0
0.2
0.1
0.2
0.2
-0.2
0.30000000000000004
-0.2
0.0
-0.30000000000000004
-0.2
0.30000000000000004
-0.1
0.2
-0.30000000000000004
-0.4
0.30000000000000004
-0.1
0.1
0.2
-0.1
0.5
0.1
-0.2
0.4
-0.30000000000000004
-0.30000000000000004
-0.1
-0.1
-0.30000000000000004
0.30000000000000004
0.5
0.0
0.30000000000000004
0.1
0.0
0.2
0.1
0.30000000000000004
-0.1
0.1
-0.1
0.2
0.2
-0.1
0.4
0.5
0.4
-0.2
-0.1
0.5
-0.1
0.30000000000000004
0.5
0.30000000000000004
-0.4
0.30000000000000004
-0.4
-0.2
0.0
-0.1
-0.30000000000000004
0.4
-0.30000000000000004
-0.4
-0.4
0.2
-0.30000000000000004
0.4
0.30000000000000004
-0.1
-0.1
0.2
0.1
0.2
0.4
-0.2
-0.30000000000000004
0.2
0.4
-0.1
-0.4
0.2
0.0
0.0
0.30000000000000004
0.30000000000000004
-0.1
-0.4
0.5
0.4
-0.2
0.2
-0.4
0.30000000000000004
0.4
0.30000000000000004
-0.2
0.2
0.4
0.2
-0.1
0.4
-0.30000000000000004
-0.4
0.30000000000000004
0.4
-0.4
-0.4
0.4
-0.1
-0.1
0.4
0.2
-0.2
0.0
0.0
0.2
0.1
-0.30000000000000004
0.2
-0.1
-0.30000000000000004
0.4
0.0
0.2
0.1
0.5
-0.30000000000000004
0.2
0.5
0.4
0.30000000000000004
0.4
0.5
0.1
0.5
-0.30000000000000004
-0.1
0.1
-0.30000000000000004
0.1
0.5
-0.30000000000000004
-0.1
-0.2
0.5
-0.30000000000000004
-0.30000000000000004
0.4
0.2
-0.30000000000000004
0.1
0.1
0.30000000000000004
0.30000000000000004
-0.30000000000000004
-0.2
-0.30000000000000004
-0.4
0.2
-0.30000000000000004
0.30000000000000004
-0.2
0.2
0.2
-0.30000000000000004
-0.2
0.30000000000000004
0.5
-0.1
-0.1
0.4
0.4
0.1
0.4
0.2
0.4
-0.1
0.2
0.5
0.1
0.2
-0.30000000000000004
-0.4
0.4
0.1
0.5
0.0
0.4
0.2
-0.1
0.30000000000000004
0.0
0.0
-0.30000000000000004
0.5
0.2
-0.30000000000000004
-0.1
0.2
0.30000000000000004
0.2
0.5
0.4
-0.4
-0.4
0.0
0.0
-0.1
0.2
-0.30000000000000004
-0.2
0.2
0.0
-0.30000000000000004
0.1
0.4
-0.4
0.1
0.2
0.4
0.2
0.30000000000000004
0.5
-0.2
0.5
0.1
-0.30000000000000004
0.1
-0.2
0.2
0.1
-0.2
0.4
0.4
-0.30000000000000004
0.4
0.30000000000000004
0.1
0.2
0.30000000000000004
0.4
0.4
0.5
-0.2
-0.4
-0.1
-0.2
0.5
-0.30000000000000004
0.5
0.2
-0.30000000000000004
-0.2
0.2
0.2
-0.30000000000000004
0.2
0.30000000000000004
-0.4
0.1
0.5
0.1
0.5
0.2
0.0
0.4
0.30000000000000004
0.5
0.1
-0.4
-0.4
-0.2
0.0
0.2
0.1
-0.30000000000000004
0.30000000000000004
0.30000000000000004
-0.2
0.30000000000000004
0.30000000000000004
-0.2
0.4
-0.4
0.30000000000000004
-0.1
0.2
0.5
0.2
0.0
0.2
0.1
0.4
0.30000000000000004
0.4
-0.2
-0.2
0.2
-0.1
-0.2
-0.4
-0.1
0.2
0.1
0.0
-0.1
0.4
-0.4
0.4
0.2
-0.30000000000000004
-0.30000000000000004
0.4
0.2
0.4
0.4
-0.2
0.1
-0.2
-0.2
-0.30000000000000004
0.5
-0.1
0.0
-0.30000000000000004
0.0
0.5
0.2
0.0
0.0
0.0
-0.30000000000000004
0.30000000000000004
0.2
0.5
0.1
0.5
0.0
0.2
0.4
0.0
-0.2
-0.4
-0.1
0.2
0.30000000000000004
-0.1
-0.4
-0.4
0.2
0.4
-0.30000000000000004
0.2
-0.1
-0.1
0.0
0.5
0.0
0.2
-0.2
0.0
-0.1
0.4
-0.2
0.2
0.1
0.0
-0.30000000000000004
-0.30000000000000004
-0.1
0.4
0.4
0.30000000000000004
0.30000000000000004
0.5
0.1
-0.1
0.2
-0.4
0.0
0.2
-0.4
-0.4
-0.1
0.1
-0.1
0.0
-0.4
-0.2
0.1
-0.1
-0.30000000000000004
-0.4
-0.30000000000000004
0.0
-0.2
0.2
-0.2
-0.1
-0.2
0.1
0.5
-0.1
-0.30000000000000004
0.5
0.1
-0.4
0.0
0.0
-0.1
0.1
0.2
-0.30000000000000004
0.0
-0.1
-0.30000000000000004
0.1
-0.1
0.5
0.1
0.2
-0.1
0.5
0.30000000000000004
0.30000000000000004
-0.4
0.5
-0.4
0.0
0.2
0.4
0.5
-0.30000000000000004
-0.1
0.0
-0.1
-0.30000000000000004
0.2
-0.4
0.4
0.30000000000000004
-0.2
0.5
-0.30000000000000004
0.0
0.4
0.5
-0.30000000000000004
-0.1
0.4
0.5
-0.30000000000000004
0.2
0.0
0.0
0.2
-0.1
-0.1
0.5
-0.30000000000000004
0.0
0.1
-0.1
0.1
0.30000000000000004
0.30000000000000004
0.5
0.0
0.4
0.1
-0.2
0.1
0.5
0.4
0.30000000000000004
-0.30000000000000004
0.2
0.2
-0.2
-0.30000000000000004
0.5
0.5
0.30000000000000004
-0.1
0.4
0.1
0.30000000000000004
-0.4
0.30000000000000004
0.2
-0.4
0.4
-0.1
-0.1
0.30000000000000004
-0.4
-0.1
0.0
-0.4
0.30000000000000004
0.0
-0.2
-0.2
-0.1
0.2
-0.2
-0.4
-0.4
-0.4
-0.2
-0.2
0.5
-0.30000000000000004
0.30000000000000004
-0.30000000000000004
0.4
-0.1
-0.4
0.0
0.2
0.30000000000000004
-0.2
-0.30000000000000004
-0.1
0.5
0.2
-0.30000000000000004
-0.4
-0.4
0.1
-0.2
0.4
-0.30000000000000004
0.1
0.2
-0.30000000000000004
-0.30000000000000004
0.0
0.1
-0.2
0.5
0.2
-0.30000000000000004
0.0
-0.30000000000000004
-0.30000000000000004
0.1
0.4
-0.4
0.5
-0.1
0.0
-0.2
-0.1
-0.30000000000000004
-0.30000000000000004
0.0
0.2
0.30000000000000004
0.2
-0.30000000000000004
0.5
0.2
0.5
-0.4
0.2
-0.30000000000000004
0.0
0.2
-0.2
0.1
-0.4
0.2
0.4
0.1
0.0
0.30000000000000004
0.30000000000000004
-0.4
0.2
0.0
0.4
0.1
0.2
0.2
-0.30000000000000004
-0.2
0.1
-0.30000000000000004
-0.2
-0.1
0.4
-0.2
0.30000000000000004
0.4
-0.4
0.2
0.30000000000000004
0.30000000000000004
0.2
0.5
0.2
-0.1
-0.1
0.2
0.5
0.1
0.1
0.1
0.4
0.0
-0.30000000000000004
0.0
0.30000000000000004
-0.30000000000000004
-0.1
0.1
0.1
-0.30000000000000004
0.5
-0.1
-0.4
0.4
-0.1
0.1
0.4
0.5
-0.4
-0.2
0.1
0.5
0.1
0.2
0.30000000000000004
0.2
0.4
0.1
-0.30000000000000004
0.5
0.0
0.30000000000000004
-0.30000000000000004
-0.4
0.30000000000000004
0.30000000000000004
0.1
0.1
-0.1
0.5
-0.30000000000000004
0.5
0.4
-0.30000000000000004
0.2
0.0
-0.30000000000000004
-0.30000000000000004
0.5
-0.1
0.2
0.4
0.2
0.5
0.5
-0.1
0.4
-0.1
0.1
0.0
-0.2
-0.1
-0.30000000000000004
0.30000000000000004
-0.30000000000000004
0.1
0.1
-0.2
0.2
0.30000000000000004
0.4
-0.2
0.4
-0.2
-0.30000000000000004
0.4
0.0
0.1
-0.4
0.30000000000000004
-0.2
0.1
0.30000000000000004
0.1
-0.2
-0.30000000000000004
-0.4
-0.2
-0.30000000000000004
-0.1
-0.1
0.5
-0.4
0.0
-0.4
0.30000000000000004
-0.1
0.30000000000000004
-0.4
-0.4
0.4
0.2
0.30000000000000004
0.4
-0.4
0.2
0.0
0.5
-0.4
0.4
0.5
0.5
-0.2
0.2
-0.1
0.30000000000000004
-0.30000000000000004
-0.4
-0.4
0.5
0.2
-0.30000000000000004
0.5
0.1
0.30000000000000004
0.2
-0.2
0.0
0.1
-0.1
0.1
0.0
-0.30000000000000004
0.0
-0.2
-0.30000000000000004
-0.4
0.2
0.2
0.1
0.4
-0.2
0.0
0.2
0.0
-0.2
0.30000000000000004
0.0
-0.30000000000000004
0.5
-0.4
0.4
-0.2
0.5
-0.30000000000000004
-0.2
-0.2
-0.1
-0.30000000000000004
-0.1
-0.4
-0.30000000000000004
0.0
0.1
-0.30000000000000004
0.30000000000000004
-0.30000000000000004
0.30000000000000004
0.1
-0.1
0.4
0.30000000000000004
-0.1
-0.30000000000000004
0.5
0.5
0.4
-0.30000000000000004
0.4
0.30000000000000004
0.2
-0.4
0.30000000000000004
-0.30000000000000004
-0.1
0.4
0.4
-0.30000000000000004
0.5
0.30000000000000004
0.5
-0.2
-0.1
-0.30000000000000004
-0.2
0.0
0.1
0.0
0.1
0.2
0.1
0.1
-0.2
0.2
0.1
0.1
0.4
-0.4
-0.30000000000000004
0.2
-0.4
0.4
0.0
0.30000000000000004
-0.1
-0.4
0.2
0.5
0.1
0.30000000000000004
0.0
0.4
-0.30000000000000004
0.0
0.1
-0.4
0.0
0.2
0.5
0.0
-0.4
0.30000000000000004
0.5
-0.1
0.30000000000000004
-0.2
-0.2
0.30000000000000004
0.30000000000000004
0.0
-0.4
0.4
0.2
0.5
0.0
-0.30000000000000004
-0.2
-0.30000000000000004
-0.4
-0.2
0.2
0.30000000000000004
0.1
0.0
-0.1
0.30000000000000004
-0.30000000000000004
-0.1
-0.4
0.2
0.30000000000000004
-0.30000000000000004
0.0
-0.30000000000000004
0.0
-0.4
-0.2
0.0
-0.2
0.1
0.1
0.1
-0.2
0.5
0.1
0.30000000000000004
0.4
0.0
0.0
0.5
-0.1
0.5
-0.4
0.2
0.2
-0.2
0.30000000000000004
0.2
-0.30000000000000004
-0.1
0.1
-0.2
0.30000000000000004
0.30000000000000004
-0.1
0.2
-0.30000000000000004
0.0
-0.30000000000000004
-0.4
0.5
-0.2
-0.1
-0.2
-0.4
-0.2
-0.30000000000000004
0.5
0.0
0.0
-0.30000000000000004
0.2
0.4
0.30000000000000004
0.0
0.30000000000000004
-0.1
0.4
0.5
0.1
0.0
-0.1
-0.4
-0.30000000000000004
-0.1
0.5
0.2
0.30000000000000004
0.30000000000000004
0.30000000000000004
-0.30000000000000004
0.30000000000000004
0.4
0.2
-0.30000000000000004
0.1
-0.30000000000000004
0.1
0.30000000000000004
0.2
0.1
0.4
-0.2
-0.1
0.0
0.5
0.0
0.5
0.30000000000000004
0.4
0.4
0.1
-0.30000000000000004
0.0
0.5
0.30000000000000004
0.0
-0.1
0.5
0.5
-0.2
0.2
-0.30000000000000004
-0.30000000000000004
-0.1
-0.1
0.5
0.1
0.2
-0.1
0.2
0.30000000000000004
0.5
0.1
-0.4
0.4
-0.2
-0.4
-0.1
-0.1
0.4
0.0
0.4
0.4
-0.30000000000000004
0.5
-0.1
-0.4
-0.1
-0.30000000000000004
0.0
-0.4
0.5
0.4
0.5
0.1
0.4
-0.1
0.5
0.0
0.1
0.1
0.4
-0.30000000000000004
0.4
-0.30000000000000004
0.30000000000000004
-0.4
-0.30000000000000004
0.4
0.0
0.0
-0.2
-0.1
-0.30000000000000004
0.4
0.1
-0.30000000000000004
0.1
-0.30000000000000004
-0.2
0.30000000000000004
0.4
0.1
0.2
0.30000000000000004
0.4
0.5
0.1
0.2
0.5
0.2
0.1
-0.1
0.4
0.30000000000000004
-0.2
0.0
0.30000000000000004
0.5
0.0
0.5
0.2
0.5
-0.30000000000000004
-0.4
-0.4
0.5
0.2
0.2
0.30000000000000004
0.0
0.0
-0.1
0.5
0.4
0.1
-0.1
0.5
-0.1
-0.2
-0.1
0.2
0.30000000000000004
0.1
-0.30000000000000004
0.1
0.1
-0.1
0.1
-0.4
-0.4
-0.2
0.4
-0.1
0.1
-0.1
0.30000000000000004
0.30000000000000004
-0.1
-0.1
-0.30000000000000004
0.2
0.1
0.0
0.5
0.1
-0.1
0.5
-0.30000000000000004
0.4
0.2
-0.30000000000000004
0.1
-0.2
0.5
0.4
-0.2
0.30000000000000004
0.2
0.1
-0.4
0.0
-0.2
0.30000000000000004
0.0
-0.2
0.4
-0.1
0.1
0.0
0.0
0.2
0.5
0.30000000000000004
0.30000000000000004
-0.4
-0.1
-0.30000000000000004
-0.4
0.5
-0.4
0.2
0.4
0.30000000000000004
-0.30000000000000004
-0.30000000000000004
0.4
0.1
-0.30000000000000004
0.30000000000000004
0.2
0.4
0.1
0.4
0.1
-0.4
0.5
-0.2
0.5
0.1
-0.4
0.0
-0.2
0.4
0.2
-0.30000000000000004
0.5
0.30000000000000004
-0.1
0.1
-0.30000000000000004
0.30000000000000004
-0.30000000000000004
0.2
0.30000000000000004
-0.2
0.5
0.2
0.0
-0.4
-0.2
-0.2
-0.2
0.5
0.30000000000000004
0.2
-0.30000000000000004
0.2
-0.1
-0.30000000000000004
-0.2
0.30000000000000004
-0.4
0.30000000000000004
0.1
0.2
0.0
0.2
0.4
0.0
-0.30000000000000004
-0.30000000000000004
-0.4
0.0
-0.2
-0.30000000000000004
0.0
0.2
-0.4
-0.1
0.5
-0.4
0.4
0.2
-0.2
-0.2
0.30000000000000004
0.4
0.0
-0.30000000000000004
0.5
0.2
-0.4
0.5
0.0
-0.30000000000000004
0.30000000000000004
-0.2
0.4
0.5
-0.30000000000000004
0.1
-0.30000000000000004
-0.4
0.1
0.30000000000000004
0.30000000000000004
-0.2
0.4
-0.4
-0.4
0.1
0.4
0.2
0.4
0.4
0.5
-0.30000000000000004
0.1
0.5
0.2
-0.4
-0.2
-0.30000000000000004
-0.1
0.1
0.4
-0.30000000000000004
0.30000000000000004
-0.30000000000000004
0.30000000000000004
0.30000000000000004
-0.30000000000000004
0.2
0.30000000000000004
-0.2
-0.4
0.1
-0.1
0.30000000000000004
-0.30000000000000004
0.30000000000000004
0.5
0.2
0.1
-0.30000000000000004
0.0
0.5
0.30000000000000004
-0.4
-0.30000000000000004
0.30000000000000004
0.1
0.1
-0.30000000000000004
0.5
-0.2
0.1
-0.1
0.30000000000000004
0.5
0.4
-0.4
0.0
-0.1
0.0
-0.2
-0.1
0.30000000000000004
-0.1
-0.1
0.2
0.5
-0.30000000000000004
-0.4
-0.4
0.30000000000000004
0.0
0.4
-0.2
0.5
0.1
0.2
-0.2
-0.1
0.2
0.4
0.5
0.0
0.4
0.0
0.1
0.4
0.0
0.1
-0.1
0.1
0.2
0.0
0.2
0.4
0.2
0.0
-0.2
0.30000000000000004
0.1
0.4
-0.30000000000000004
0.4
-0.1
-0.30000000000000004
-0.2
-0.30000000000000004
-0.1
0.0
0.1
0.5
0.30000000000000004
0.5
0.0
0.4
0.2
0.4
0.1
0.4
-0.2
0.0
0.30000000000000004
-0.2
0.4
0.1
-0.30000000000000004
0.5
0.2
0.2
0.4
0.5
0.1
0.5
-0.30000000000000004
0.1
0.1
-0.2
0.5
0.0
0.4
0.2
0.2
0.2
-0.4
0.30000000000000004
-0.30000000000000004
0.0
-0.1
0.0
0.0
0.2
-0.30000000000000004
0.4
-0.4
-0.4
-0.1
-0.4
0.0
0.2
0.0
0.30000000000000004
0.1
-0.30000000000000004
-0.1
0.1
-0.30000000000000004
0.2
0.5
0.5
-0.1
0.1
0.4
-0.2
0.5
0.0
0.4
0.30000000000000004
0.4
0.0
0.4
0.5
-0.1
-0.4
-0.2
0.1
-0.30000000000000004
0.0
0.5
0.2
-0.1
0.5
0.5
0.5
0.4
0.4
0.4
0.5
-0.2
0.0
-0.4
-0.30000000000000004
0.30000000000000004
0.30000000000000004
0.1
-0.2
0.5
0.4
-0.30000000000000004
0.30000000000000004
0.0
0.1
0.2
0.5
-0.30000000000000004
0.5
0.30000000000000004
0.2
-0.1
-0.30000000000000004
-0.2
-0.1
0.2
0.30000000000000004
0.2
0.1
0.5
-0.4
0.4
-0.30000000000000004
-0.4
-0.2
-0.1
0.30000000000000004
0.2
-0.1
0.30000000000000004
-0.30000000000000004
0.4
0.1
-0.2
0.2
-0.4
-0.2
-0.30000000000000004
-0.4
0.0
-0.2
0.1
0.0
0.4
0.30000000000000004
-0.30000000000000004
-0.30000000000000004
0.1
0.4
0.2
0.0
0.30000000000000004
-0.4
0.4
0.2
0.5
0.2
-0.1
-0.30000000000000004
0.1
0.0
-0.1
-0.2
-0.2
0.30000000000000004
-0.2
0.5
-0.2
-0.1
-0.4
-0.2
-0.30000000000000004
-0.1
0.30000000000000004
-0.1
0.1
0.1
-0.4
-0.4
0.4
0.1
0.30000000000000004
0.1
-0.1
0.4
0.5
0.0
-0.1
0.5
0.5
0.1
0.1
0.1
0.5
0.30000000000000004
-0.4
-0.30000000000000004
0.4
-0.1
-0.2
-0.2
-0.30000000000000004
0.30000000000000004
0.30000000000000004
0.2
0.0
-0.2
-0.1
-0.30000000000000004
0.5
-0.1
0.0
-0.30000000000000004
0.2
-0.1
0.1
-0.4
0.5
-0.1
-0.2
-0.4
0.1
0.4
0.0
0.0
0.2
-0.2
0.2
-0.1
0.1
0.30000000000000004
0.30000000000000004
-0.2
0.30000000000000004
-0.30000000000000004
0.2
0.1
-0.1
0.5
0.0
-0.1
0.4
0.1
0.0
0.2
0.2
-0.2
0.30000000000000004
-0.1
0.2
-0.2
-0.1
-0.1
-0.2
-0.30000000000000004
0.4
0.5
-0.30000000000000004
0.0
0.0
0.1
0.30000000000000004
-0.2
0.5
0.2
0.4
-0.4
0.2
0.4
-0.4
-0.1
-0.30000000000000004
0.4
-0.30000000000000004
-0.4
0.30000000000000004
0.1
0.0
0.4
-0.4
-0.30000000000000004
0.1
-0.30000000000000004
0.2
0.2
-0.1
0.0
0.0
0.5
0.1
0.5
-0.30000000000000004
-0.30000000000000004
0.5
0.30000000000000004
0.0
0.1
-0.1
-0.30000000000000004
-0.4
-0.1
0.4
0.1
0.5
0.5
0.1
-0.2
0.30000000000000004
-0.30000000000000004
0.30000000000000004
0.4
0.4
0.2
-0.4
0.30000000000000004
0.2
0.5
0.2
0.30000000000000004
-0.4
0.0
-0.4
-0.2
0.30000000000000004
0.5
-0.4
0.5
0.0
-0.30000000000000004
0.30000000000000004
-0.2
0.5
0.4
0.4
-0.30000000000000004
0.4
0.30000000000000004
-0.1
-0.2
-0.4
0.2
0.30000000000000004
-0.2
-0.30000000000000004
-0.1
0.5
0.5
-0.30000000000000004
-0.2
0.2
-0.30000000000000004
0.4
-0.4
0.30000000000000004
-0.30000000000000004
0.0
-0.30000000000000004
0.30000000000000004
0.1
0.4
0.30000000000000004
-0.4
0.5
-0.4
-0.30000000000000004
-0.30000000000000004
0.30000000000000004
0.1
0.5
-0.30000000000000004
0.0
-0.2
-0.2
0.5
-0.4
-0.30000000000000004
-0.30000000000000004
-0.4
0.1
0.30000000000000004
0.0
0.4
-0.1
-0.4
-0.4
0.4
-0.2
0.0
0.30000000000000004
-0.1
-0.2
0.1
0.1
0.2
0.30000000000000004
-0.2
-0.4
0.2
0.0
0.30000000000000004
0.4
0.0
0.4
-0.30000000000000004
0.30000000000000004
0.4
0.4
0.0
0.1
-0.1
-0.1
0.30000000000000004
0.2
0.30000000000000004
0.2
0.5
-0.4
0.1
0.4
0.2
-0.30000000000000004
0.30000000000000004
0.5
0.4
0.2
-0.30000000000000004
-0.2
-0.4
-0.4
0.1
0.1
-0.30000000000000004
0.30000000000000004
-0.2
0.4
-0.2
0.1
0.1
-0.1
-0.4
-0.4
0.0
-0.1
0.30000000000000004
0.2
0.0
0.4
0.4
-0.30000000000000004
0.4
-0.2
0.2
0.5
-0.30000000000000004
-0.4
-0.30000000000000004
-0.2
0.30000000000000004
0.2
0.1
-0.2
0.5
0.0
-0.30000000000000004
0.1
0.4
0.2
0.4
0.4
0.5
-0.1
0.1
0.2
-0.4
0.2
-0.1
-0.30000000000000004
-0.2
0.1
0.4
0.0
-0.2
0.0
-0.4
-0.1
0.0
0.4
0.5
0.0
-0.1
0.5
0.30000000000000004
-0.4
0.5
0.0
-0.2
0.5
0.2
0.0
-0.2
0.4
-0.2
0.4
-0.1
-0.4
0.30000000000000004
0.2
0.30000000000000004
0.0
0.4
-0.4
0.5
0.0
-0.30000000000000004
0.2
0.30000000000000004
-0.30000000000000004
-0.1
0.4
-0.1
0.5
0.30000000000000004
-0.1
0.0
-0.30000000000000004
0.4
-0.2
0.30000000000000004
0.1
-0.1
-0.2
-0.2
0.2
0.30000000000000004
0.4
-0.2
-0.4
0.5
0.1
-0.1
0.5
-0.4
-0.2
0.0
-0.4
0.4
0.1
0.1
-0.1
-0.4
0.4
0.5
-0.2
-0.30000000000000004
0.2
0.5
0.5
-0.30000000000000004
0.2
-0.2
-0.2
0.2
0.30000000000000004
0.0
0.5
-0.4
0.2
0.0
-0.30000000000000004
0.4
0.5
0.2
-0.30000000000000004
0.30000000000000004
0.2
-0.4
0.5
-0.1
0.30000000000000004
0.0
-0.30000000000000004
0.1
-0.4
-0.4
0.0
-0.30000000000000004
0.2
0.2
-0.30000000000000004
0.0
0.0
0.4
0.2
-0.1
0.2
0.2
-0.30000000000000004
0.1
0.5
0.30000000000000004
-0.4
0.4
0.0
0.1
-0.4
-0.4
-0.2
0.5
0.0
0.2
0.0
0.1
-0.30000000000000004
0.5
0.30000000000000004
-0.30000000000000004
-0.4
0.4
-0.1
-0.2
-0.1
-0.4
-0.1
0.30000000000000004
-0.2
-0.2
0.0
0.5
-0.1
0.4
0.2
0.5
-0.4
-0.4
0.4
0.4
-0.4
0.5
-0.2
0.2
-0.2
0.4
-0.1
0.4
-0.4
0.4
-0.2
0.1
0.30000000000000004
-0.2
-0.1
0.30000000000000004
0.2
-0.2
-0.2
0.2
0.0
-0.4
-0.2
0.2
0.30000000000000004
-0.30000000000000004
-0.1
-0.2
-0.1
0.4
0.2
0.30000000000000004
0.30000000000000004
0.5
0.1
-0.4
0.0
0.2
0.1
0.30000000000000004
0.0
0.5
0.0
0.2
-0.4
0.5
0.2
0.1
0.0
0.1
-0.1
-0.1
-0.1
-0.1
-0.30000000000000004
0.0
0.4
0.5
0.4
-0.2
-0.2
0.4
0.4
0.0
-0.30000000000000004
-0.2
0.5
-0.1
-0.1
0.4
-0.2
-0.30000000000000004
0.2
-0.1
0.5
-0.2
-0.2
0.30000000000000004
-0.4
-0.30000000000000004
0.5
0.4
0.5
0.0
-0.1
0.5
0.1
0.1
0.0
-0.4
0.4
0.0
0.4
-0.2
-0.2
0.30000000000000004
0.2
-0.30000000000000004
0.1
0.0
0.2
-0.30000000000000004
-0.4
-0.2
0.1
-0.2
0.5
0.1
0.2
0.2
0.2
0.4
0.1
0.4
0.4
0.5
0.1
-0.4
0.5
0.1
0.2
-0.30000000000000004
0.2
-0.4
-0.4
0.0
-0.1
-0.1
0.2
0.4
0.2
0.2
0.4
-0.2
0.2
0.4
0.5
0.5
-0.30000000000000004
-0.2
0.1
-0.1
0.0
-0.30000000000000004
0.0
0.4
-0.2
-0.1
0.1
-0.2
0.30000000000000004
-0.4
-0.2
0.1
-0.30000000000000004
0.2
-0.1
0.4
0.2
0.0
0.1
-0.1
0.4
0.2
-0.2
0.30000000000000004
0.2
0.30000000000000004
0.30000000000000004
0.4
-0.4
0.1
-0.30000000000000004
0.1
0.1
0.5
-0.2
-0.4
0.1
0.30000000000000004
0.0
-0.30000000000000004
0.1
0.2
0.2
0.0
-0.30000000000000004
-0.30000000000000004
0.0
-0.1
0.5
0.2
0.30000000000000004
0.1
0.0
0.0
-0.4
0.30000000000000004
-0.2
0.0
0.0
0.5
-0.2
0.4
0.30000000000000004
-0.2
0.5
-0.30000000000000004
-0.30000000000000004
0.5
-0.1
0.4
-0.30000000000000004
-0.2
0.0
-0.2
-0.2
0.5
-0.4
-0.2
0.4
-0.30000000000000004
-0.2
0.2
-0.4
-0.2
0.0
0.2
0.30000000000000004
0.0
0.5
0.4
-0.4
0.1
-0.4
-0.2
-0.1
0.5
-0.2
0.4
-0.1
0.0
0.4
0.0
0.30000000000000004
-0.1
-0.2
0.5
-0.4
-0.4
0.5
-0.2
0.4
0.2
0.30000000000000004
-0.2
0.4
0.30000000000000004
-0.30000000000000004
0.0
0.5
-0.30000000000000004
0.0
-0.4
0.30000000000000004
0.1
0.2
0.4
0.2
0.5
0.5
-0.4
-0.4
0.30000000000000004
-0.2
0.4
-0.30000000000000004
0.2
0.2
-0.30000000000000004
-0.2
0.1
-0.1
-0.30000000000000004
0.1
0.1
0.5
-0.1
0.5
0.0
0.4
0.1
-0.1
0.0
-0.1
-0.2
0.1
-0.30000000000000004
0.0
0.5
0.4
0.4
0.4
-0.30000000000000004
0.1
0.30000000000000004
-0.1
0.1
-0.4
-0.1
0.2
-0.4
0.2
-0.2
-0.4
0.4
0.4
0.30000000000000004
-0.1
-0.1
0.30000000000000004
0.30000000000000004
0.5
-0.30000000000000004
0.1
0.30000000000000004
-0.2
0.5
0.4
0.0
0.2
0.5
-0.2
0.1
-0.4
0.4
-0.4
-0.30000000000000004
0.30000000000000004
0.5
0.5
0.0
0.0
0.0
-0.4
0.1
0.4
0.4
-0.4
0.2
-0.30000000000000004
0.2
0.4
0.4
0.0
0.0
0.0
-0.30000000000000004
-0.4
0.2
0.1
0.1
0.4
0.1
-0.4
-0.4
0.1
0.4
0.0
-0.4
-0.30000000000000004
-0.4
-0.4
0.4
0.5
-0.30000000000000004
0.0
-0.1
0.0
0.30000000000000004
0.0
0.5
-0.30000000000000004
-0.4
0.1
0.4
-0.4
0.5
-0.30000000000000004
0.0
-0.30000000000000004
-0.30000000000000004
-0.1
0.30000000000000004
0.0
-0.4
0.2
0.2
-0.1
0.1
-0.30000000000000004
0.5
0.5
-0.1
-0.2
0.5
0.2
-0.2
0.2
0.4
-0.1
0.4
0.1
0.4
0.0
0.1
0.2
0.5
0.2
0.5
-0.30000000000000004
-0.4
0.4
-0.4
0.4
0.30000000000000004
0.5
0.4
-0.30000000000000004
-0.2
0.30000000000000004
0.0
-0.2
0.1
0.2
-0.2
-0.30000000000000004
0.30000000000000004
0.30000000000000004
0.30000000000000004
-0.2
0.5
0.5
-0.2
0.1
-0.30000000000000004
-0.2
0.2
0.2
0.4
0.2
0.30000000000000004
0.5
-0.30000000000000004
-0.4
-0.1
0.30000000000000004
0.0
-0.2
-0.2
-0.2
-0.30000000000000004
0.0
0.2
0.30000000000000004
0.1
0.30000000000000004
0.5
0.2
0.0
-0.2
-0.4
0.1
0.5
-0.30000000000000004
-0.30000000000000004
0.30000000000000004
-0.1
-0.30000000000000004
0.2
-0.2
-0.4
0.30000000000000004
0.4
0.4
0.1
0.4
0.4
0.30000000000000004
-0.2
0.0
0.1
0.2
-0.30000000000000004
-0.2
-0.4
0.30000000000000004
0.30000000000000004
0.2
0.0
0.1
-0.4
0.4
-0.2
-0.30000000000000004
0.1
-0.4
-0.4
0.30000000000000004
-0.2
-0.1
0.5
0.2
-0.2
-0.30000000000000004
0.0
-0.1
-0.4
-0.1
-0.2
-0.2
0.4
0.1
0.4
-0.4
0.30000000000000004
-0.30000000000000004
0.2
0.30000000000000004
-0.2
-0.1
-0.1
-0.30000000000000004
0.1
0.30000000000000004
0.1
0.1
0.2
0.0
0.2
0.2
-0.1
0.4
0.30000000000000004
-0.1
0.0
0.4
-0.30000000000000004
-0.1
0.0
-0.4
-0.2
0.1
0.30000000000000004
-0.30000000000000004
0.5
0.1
-0.30000000000000004
0.2
-0.4
0.30000000000000004
-0.30000000000000004
-0.30000000000000004
0.2
0.0
0.1
0.0
0.4
0.4
-0.2
0.1
0.1
-0.2
0.30000000000000004
0.0
0.0
-0.2
-0.30000000000000004
0.0
-0.4
-0.30000000000000004
-0.2
0.4
-0.2
0.2
-0.4
-0.4
0.0
0.0
-0.30000000000000004
-0.1
-0.4
-0.2
-0.30000000000000004
0.5
0.4
0.1
0.1
0.1
0.1
0.2
0.2
0.0
0.4
-0.2
0.30000000000000004
0.5
-0.2
-0.30000000000000004
-0.2
0.0
0.4
0.2
0.0
0.0
-0.1
-0.30000000000000004
0.4
0.30000000000000004
0.0
-0.30000000000000004
0.1
-0.1
0.30000000000000004
-0.30000000000000004
0.1
-0.1
0.0
0.0
0.1
0.0
0.0
-0.2
0.5
0.4
-0.4
0.1
0.2
-0.30000000000000004
-0.2
-0.2
0.2
0.1
0.2
0.5
0.0
-0.30000000000000004
0.4
0.5
0.30000000000000004
-0.1
-0.1
0.4
-0.1
-0.1
0.5
0.4
-0.30000000000000004
-0.4
-0.4
0.0
-0.1
-0.4
0.1
0.30000000000000004
-0.2
0.1
0.4
0.0
0.4
0.0
-0.4
0.30000000000000004
0.4
0.0
0.30000000000000004
0.4
-0.30000000000000004
0.1
-0.4
-0.2
0.2
-0.30000000000000004
-0.30000000000000004
0.4
0.0
0.2
0.0
-0.30000000000000004
0.4
-0.1
-0.1
0.2
-0.4
-0.4
0.4
-0.1
0.2
0.2
-0.4
0.1
-0.4
0.2
0.5
-0.4
-0.1
-0.4
0.30000000000000004
-0.30000000000000004
0.2
0.1
-0.30000000000000004
0.1
-0.4
0.2
0.4
0.0
0.2
-0.1
0.30000000000000004
-0.1
-0.30000000000000004
0.4
0.5
-0.1
0.2
0.0
-0.4
-0.1
-0.1
0.2
0.5
0.2
0.4
0.1
-0.30000000000000004
0.0
0.0
0.30000000000000004
0.1
0.1
-0.1
-0.2
-0.30000000000000004
0.0
-0.4
-0.2
-0.2
0.4
0.5
0.1
0.0
0.1
-0.30000000000000004
0.5
-0.30000000000000004
0.4
-0.30000000000000004
0.0
0.0
-0.2
-0.4
-0.1
0.0
0.0
0.0
0.0
0.0
0.4
-0.30000000000000004
0.0
0.4
-0.4
0.30000000000000004
0.5
-0.4
0.30000000000000004
0.1
-0.30000000000000004
-0.30000000000000004
-0.1
0.5
-0.1
-0.1
0.1
0.5
-0.1
-0.2
-0.4
-0.1
0.30000000000000004
-0.2
0.0
-0.2
0.5
0.1
0.2
-0.4
0.30000000000000004
-0.1
-0.2
-0.1
0.1
0.2
0.30000000000000004
0.4
-0.4
-0.1
0.4
-0.1
-0.1
0.30000000000000004
-0.1
0.4
0.4
0.30000000000000004
0.2
0.30000000000000004
0.30000000000000004
0.2
-0.2
0.2
0.30000000000000004
-0.4
-0.1
-0.2
0.5
0.5
0.2
-0.4
0.0
0.4
0.2
0.1
-0.1
-0.30000000000000004
0.5
-0.1
-0.30000000000000004
0.4
0.5
-0.30000000000000004
-0.30000000000000004
-0.4
0.2
-0.1
0.1
0.4
-0.30000000000000004
0.2
0.30000000000000004
-0.4
0.5
0.2
0.30000000000000004
0.0
-0.4
0.30000000000000004
-0.2
0.1
0.4
0.1
-0.4
-0.30000000000000004
0.0
0.1
-0.30000000000000004
0.2
0.0
-0.4
-0.2
0.5
-0.4
0.30000000000000004
-0.2
-0.2
-0.1
0.2
0.0
0.0
0.4
-0.30000000000000004
0.4
-0.1
0.0
-0.30000000000000004
-0.1
-0.2
-0.2
0.2
-0.2
0.5
-0.30000000000000004
-0.1
0.2
0.2
0.30000000000000004
-0.4
-0.30000000000000004
0.1
0.1
0.0
0.1
0.1
-0.2
-0.1
-0.1
-0.1
0.30000000000000004
0.5
0.2
0.4
-0.4
0.30000000000000004
0.30000000000000004
0.4
0.30000000000000004
0.0
0.30000000000000004
-0.1
-0.30000000000000004
-0.4
-0.2
0.0
-0.2
0.2
-0.2
0.1
0.5
-0.4
0.2
0.0
-0.2
0.2
0.30000000000000004
-0.4
-0.1
0.1
0.2
-0.1
0.30000000000000004
-0.4
0.5
-0.4
-0.4
-0.1
-0.4
0.2
0.1
-0.1
-0.4
0.1
-0.2
0.5
-0.30000000000000004
0.5
-0.2
-0.4
0.2
0.5
-0.4
-0.1
0.2
0.5
0.0
-0.4
0.4
0.30000000000000004
0.4
0.5
-0.30000000000000004
0.4
-0.30000000000000004
0.30000000000000004
0.5
-0.2
0.4
0.5
-0.30000000000000004
0.5
0.4
0.4
0.0
-0.30000000000000004
-0.4
0.1
-0.1
-0.4
-0.1
-0.1
0.1
0.1
-0.1
-0.1
0.5
-0.4
-0.2
0.4
0.5
0.4
0.30000000000000004
-0.4
0.2
-0.4
-0.30000000000000004
0.2
0.30000000000000004
0.2
0.5
-0.4
0.30000000000000004
0.30000000000000004
-0.30000000000000004
0.5
-0.4
0.1
0.5
0.2
0.4
0.0
-0.4
-0.4
0.1
-0.1
0.2
0.2
-0.30000000000000004
0.30000000000000004
0.30000000000000004
0.1
-0.2
-0.2
0.4
0.4
-0.30000000000000004
0.1
-0.30000000000000004
-0.4
-0.2
0.5
0.30000000000000004
-0.30000000000000004
0.5
0.5
-0.2
-0.2
-0.30000000000000004
-0.1
0.2
0.1
-0.30000000000000004
-0.2
-0.30000000000000004
0.30000000000000004
-0.2
0.5
-0.4
-0.1
0.0
0.4
0.2
-0.2
0.5
0.0
-0.2
0.0
0.2
-0.30000000000000004
-0.30000000000000004
-0.1
0.4
-0.1
-0.2
0.30000000000000004
-0.1
0.0
0.0
0.0
0.1
0.5
-0.30000000000000004
-0.4
-0.30000000000000004
-0.2
-0.1
-0.2
0.5
-0.30000000000000004
-0.1
-0.4
-0.2
0.5
0.5
0.5
0.5
0.1
-0.30000000000000004
-0.1
-0.2
0.5
0.4
-0.1
0.5
0.0
-0.2
-0.30000000000000004
0.4
0.30000000000000004
-0.1
0.5
0.4
0.1
0.1
-0.4
-0.4
0.5
0.0
-0.30000000000000004
0.5
0.30000000000000004
0.5
0.4
0.0
0.1
-0.4
0.1
-0.2
-0.30000000000000004
0.2
-0.1
0.5
-0.4
-0.30000000000000004
0.0
-0.2
0.5
-0.30000000000000004
0.2
-0.1
0.30000000000000004
-0.2
0.30000000000000004
0.2
-0.1
-0.4
-0.4
-0.2
-0.4
-0.30000000000000004
0.2
-0.2
-0.4
0.2
-0.2
-0.30000000000000004
0.2
0.4
0.4
0.5
-0.4
0.4
0.30000000000000004
0.2
0.2
0.5
0.0
-0.1
-0.4
-0.1
-0.1
-0.4
0.4
0.1
-0.4
0.4
-0.1
0.5
-0.30000000000000004
0.0
-0.2
-0.1
-0.4
0.2
-0.4
-0.2
0.5
-0.4
0.0
-0.30000000000000004
-0.1
-0.30000000000000004
-0.30000000000000004
0.30000000000000004
0.2
-0.4
-0.2
0.1
0.0
0.2
0.30000000000000004
-0.2
-0.4
0.5
-0.1
0.1
-0.30000000000000004
-0.1
0.0
-0.2
0.2
0.30000000000000004
0.2
-0.1
-0.1
0.2
-0.1
-0.30000000000000004
0.2
0.30000000000000004
0.2
0.5
0.0
0.1
-0.4
-0.30000000000000004
-0.1
-0.30000000000000004
-0.4
-0.2
0.0
0.2
0.5
0.2
0.2
0.5
0.1
-0.1
0.0
-0.30000000000000004
-0.30000000000000004
0.5
0.4
0.4
-0.4
0.4
0.2
-0.2
0.0
-0.1
0.1
0.2
0.5
-0.30000000000000004
-0.2
0.2
0.5
0.2
0.30000000000000004
0.4
0.5
0.2
0.2
0.4
0.2
0.5
-0.2
-0.30000000000000004
0.0
-0.4
0.0
0.4
0.0
0.4
0.30000000000000004
0.1
0.2
0.5
0.0
0.30000000000000004
0.30000000000000004
-0.4
0.30000000000000004
-0.30000000000000004
0.5
0.5
-0.2
-0.1
0.5
0.4
-0.30000000000000004
0.30000000000000004
-0.2
0.4
0.2
0.4
0.0
-0.1
0.2
-0.30000000000000004
0.4
0.5
0.0
0.4
0.1
0.5
0.2
0.2
0.1
-0.30000000000000004
-0.2
0.1
-0.30000000000000004
-0.30000000000000004
0.1
0.30000000000000004
-0.1
0.2
-0.4
0.4
0.1
0.5
0.2
0.2
0.0
0.5
0.2
0.2
-0.4
0.4
-0.1
0.30000000000000004
-0.2
-0.1
-0.4
-0.2
0.1
0.2
-0.4
-0.2
-0.2
0.30000000000000004
-0.30000000000000004
-0.4
0.0
-0.2
-0.4
0.5
-0.4
0.4
0.0
-0.1
0.4
0.30000000000000004
-0.2
-0.1
0.2
-0.4
0.1
0.1
0.2
-0.1
0.2
0.2
0.4
0.5
0.0
-0.1
0.1
0.5
-0.1
0.2
-0.4
0.4
0.1
0.5
0.2
0.0
0.5
0.4
-0.1
-0.30000000000000004
0.30000000000000004
0.4
-0.1
-0.4
-0.2
0.4
-0.4
-0.30000000000000004
0.1
-0.30000000000000004
-0.2
0.2
-0.4
0.1
-0.4
0.1
-0.30000000000000004
0.1
-0.1
0.4
0.0
-0.1
-0.2
0.0
-0.1
0.4
-0.30000000000000004
0.30000000000000004
0.4
0.1
-0.2
-0.4
0.30000000000000004
0.5
-0.1
0.2
0.1
0.5
0.4
0.5
-0.4
0.2
-0.2
0.2
0.0
0.4
0.4
-0.4
-0.30000000000000004
-0.4
-0.2
-0.30000000000000004
-0.30000000000000004
0.5
0.4
0.5
-0.1
0.2
0.1
0.5
-0.2
0.4
0.0
-0.30000000000000004
0.4
0.0
0.1
0.2
-0.4
-0.30000000000000004
-0.30000000000000004
0.4
0.4
-0.30000000000000004
0.5
0.30000000000000004
-0.1
-0.2
0.0
-0.2
0.0
0.30000000000000004
0.30000000000000004
0.30000000000000004
-0.2
0.0
-0.4
0.4
0.30000000000000004
0.4
0.5
0.30000000000000004
0.30000000000000004
0.5
0.4
-0.2
0.4
0.1
-0.2
-0.1
-0.4
-0.30000000000000004
-0.2
-0.30000000000000004
0.30000000000000004
-0.1
0.2
0.4
0.4
-0.4
0.4
0.4
0.4
0.30000000000000004
0.5
0.4
-0.4
-0.2
-0.1
0.5
0.4
-0.2
0.2
-0.30000000000000004
0.5
0.0
-0.4
0.4
-0.1
-0.1
0.0
-0.1
-0.1
0.0
0.0
0.1
-0.4
-0.2
-0.4
-0.1
-0.1
0.4
0.0
-0.2
-0.30000000000000004
-0.4
-0.4
0.1
-0.2
0.4
-0.4
0.0
-0.4
0.2
0.2
0.4
0.0
0.0
-0.1
0.4
-0.30000000000000004
0.0
0.5
-0.30000000000000004
0.2
0.4
-0.2
0.30000000000000004
-0.4
0.4
0.1
-0.2
0.5
-0.30000000000000004
-0.2
0.30000000000000004
0.30000000000000004
0.2
-0.2
0.2
-0.4
0.2
0.2
0.1
0.0
0.0
-0.1
-0.1
-0.4
-0.2
0.4
0.2
-0.2
0.4
0.1
-0.30000000000000004
0.2
-0.1
0.4
-0.2
0.1
-0.2
0.0
0.30000000000000004
0.1
0.1
-0.2
0.5
0.5
0.30000000000000004
0.30000000000000004
0.4
0.0
0.0
-0.2
0.1
-0.30000000000000004
0.30000000000000004
-0.30000000000000004
-0.4
-0.2
0.30000000000000004
-0.1
0.4
0.1
-0.2
0.4
-0.2
0.2
0.30000000000000004
0.1
-0.4
0.5
0.4
0.2
-0.30000000000000004
0.0
-0.2
-0.2
0.30000000000000004
-0.30000000000000004
0.4
0.0
0.1
0.2
-0.2
-0.2
0.0
0.4
0.2
0.2
0.5
-0.2
0.30000000000000004
0.1
-0.30000000000000004
-0.2
0.2
0.1
0.4
0.5
-0.1
-0.2
0.1
0.4
0.1
-0.30000000000000004
-0.30000000000000004
0.5
-0.2
-0.4
0.30000000000000004
-0.30000000000000004
0.4
0.30000000000000004
-0.4
-0.30000000000000004
0.30000000000000004
0.1
-0.2
0.2
0.5
0.5
0.4
-0.1
0.0
0.1
0.5
-0.30000000000000004
0.0
0.0
0.0
0.5
0.4
-0.30000000000000004
0.4
0.1
0.5
-0.30000000000000004
0.30000000000000004
0.4
0.1
0.1
0.4
0.1
-0.30000000000000004
-0.4
0.4
-0.2
0.1
0.2
0.0
-0.1
-0.4
-0.2
-0.30000000000000004
0.2
0.30000000000000004
-0.30000000000000004
-0.2
-0.4
-0.4
0.1
0.4
-0.30000000000000004
0.5
0.4
0.30000000000000004
-0.2
-0.2
0.1
0.1
0.2
0.1
0.5
-0.30000000000000004
0.30000000000000004
-0.30000000000000004
-0.4
-0.1
0.30000000000000004
0.5
-0.1
0.1
0.0
0.0
0.4
0.0
-0.30000000000000004
-0.1
-0.2
0.5
0.5
0.2
0.30000000000000004
-0.2
-0.2
0.1
0.4
0.2
-0.2
0.5
0.2
-0.2
0.2
-0.1
-0.2
0.5
-0.4
0.30000000000000004
0.30000000000000004
0.30000000000000004
-0.2
0.5
0.30000000000000004
0.0
0.1
-0.30000000000000004
0.30000000000000004
0.5
0.30000000000000004
0.30000000000000004
-0.1
-0.4
-0.1
0.0
-0.4
0.2
0.30000000000000004
-0.4
0.1
0.4
0.30000000000000004
0.30000000000000004
0.2
-0.30000000000000004
-0.30000000000000004
0.2
-0.1
0.30000000000000004
0.2
-0.4
0.30000000000000004
0.4
0.2
0.30000000000000004
-0.4
0.2
0.0
0.30000000000000004
-0.30000000000000004
-0.30000000000000004
-0.1
0.30000000000000004
0.5
-0.4
-0.4
-0.2
-0.30000000000000004
0.4
-0.1
0.0
0.5
0.1
0.5
-0.2
0.1
-0.4
-0.2
0.4
0.1
0.2
-0.30000000000000004
-0.2
-0.30000000000000004
-0.2
0.5
0.5
-0.1
0.4
-0.30000000000000004
-0.1
0.1
0.1
-0.4
0.1
-0.2
0.1
0.0
0.30000000000000004
0.2
0.2
0.0
-0.30000000000000004
-0.4
0.2
-0.1
0.4
0.30000000000000004
-0.1
0.30000000000000004
0.5
0.0
-0.1
0.1
-0.1
-0.30000000000000004
0.30000000000000004
-0.1
0.0
0.1
0.1
0.30000000000000004
0.4
-0.30000000000000004
0.1
0.30000000000000004
-0.4
-0.1
0.0
0.1
0.0
0.1
0.0
-0.30000000000000004
0.2
-0.2
0.4
0.0
0.0
-0.2
0.4
-0.30000000000000004
-0.30000000000000004
0.5
0.1
0.0
-0.30000000000000004
0.1
-0.1
-0.30000000000000004
0.2
-0.2
0.2
0.4
0.2
-0.30000000000000004
0.2
0.1
0.1
0.5
-0.30000000000000004
0.2
-0.4
-0.4
-0.2
0.30000000000000004
-0.4
-0.30000000000000004
0.4
-0.2
0.0
-0.4
-0.4
-0.30000000000000004
0.4
0.5
0.5
0.1
0.5
0.4
0.2
0.1
0.1
0.4
-0.2
0.1
-0.1
0.30000000000000004
-0.30000000000000004
-0.1
0.0
0.4
0.30000000000000004
-0.30000000000000004
-0.2
0.30000000000000004
-0.2
0.1
-0.2
-0.30000000000000004
-0.2
-0.4
0.1
0.30000000000000004
-0.30000000000000004
-0.4
-0.2
0.5
0.5
0.0
0.4
0.4
0.0
0.4
0.30000000000000004
0.2
0.30000000000000004
0.5
0.2
0.30000000000000004
0.2
0.30000000000000004
-0.1
0.30000000000000004
-0.1
-0.1
0.5
0.0
-0.2
0.0
-0.2
0.4
0.2
-0.4
0.5
0.4
-0.2
-0.1
-0.2
-0.4
-0.4
0.30000000000000004
0.2
0.1
0.0
0.2
-0.30000000000000004
0.0
-0.2
0.30000000000000004
0.1
0.4
-0.2
0.2
-0.1
-0.30000000000000004
-0.4
-0.1
-0.1
0.1
0.1
0.5
0.0
-0.4
0.5
-0.1
0.2
-0.1
0.30000000000000004
-0.2
0.1
0.4
0.4
-0.4
0.5
0.5
0.30000000000000004
0.2
-0.2
0.2
-0.30000000000000004
0.4
-0.30000000000000004
0.30000000000000004
0.5
0.1
-0.30000000000000004
-0.2
0.30000000000000004
-0.2
-0.1
0.30000000000000004
0.30000000000000004
0.2
0.4
0.0
0.2
0.1
0.5
0.1
0.30000000000000004
-0.4
-0.30000000000000004
0.5
-0.4
-0.1
0.2
-0.1
0.1
-0.1
0.5
-0.30000000000000004
-0.30000000000000004
0.4
0.5
0.0
0.30000000000000004
-0.1
0.2
0.1
0.5
0.5
0.1
0.5
-0.1
0.4
0.0
0.5
0.4
0.5
0.30000000000000004
0.0
-0.2
0.30000000000000004
-0.2
-0.2
0.2
-0.30000000000000004
-0.1
0.5
0.1
-0.1
0.2
0.0
0.2
0.4
0.5
0.5
-0.2
-0.30000000000000004
-0.2
-0.30000000000000004
0.1
-0.4
0.5
-0.30000000000000004
0.1
-0.4
-0.4
0.1
0.2
0.2
-0.4
0.4
-0.2
-0.1
-0.2
0.2
-0.1
0.1
0.2
0.1
-0.1
0.1
0.5
0.1
-0.30000000000000004
-0.4
0.30000000000000004
0.2
0.0
-0.30000000000000004
0.30000000000000004
-0.4
0.0
0.0
0.0
0.30000000000000004
0.4
-0.4
0.1
0.30000000000000004
-0.1
0.0
0.4
0.5
0.30000000000000004
0.4
-0.30000000000000004
0.2
0.5
0.30000000000000004
0.2
-0.2
0.1
-0.30000000000000004
-0.1
-0.1
0.2
-0.4
0.5
-0.1
0.2
-0.2
0.2
0.1
-0.30000000000000004
-0.30000000000000004
-0.2
0.4
-0.4
-0.2
0.30000000000000004
-0.30000000000000004
-0.4
0.1
-0.2
0.30000000000000004
-0.1
-0.2
0.1
0.5
0.4
0.30000000000000004
0.4
-0.2
0.4
0.1
-0.1
-0.1
0.5
-0.2
-0.4
-0.1
0.0
0.30000000000000004
0.0
0.5
-0.1
0.30000000000000004
-0.2
0.4
-0.4
-0.1
0.5
-0.2
0.1
0.0
0.4
0.5
0.4
0.0
-0.1
0.5
-0.1
0.30000000000000004
0.2
0.0
0.0
-0.30000000000000004
-0.4
0.30000000000000004
0.5
0.1
0.2
-0.2
0.4
0.2
0.30000000000000004
-0.2
0.30000000000000004
0.2
-0.1
0.0
0.1
0.1
0.4
-0.30000000000000004
-0.2
-0.30000000000000004
0.4
0.0
0.0
0.2
-0.30000000000000004
-0.30000000000000004
-0.2
-0.4
0.0
0.4
0.0
0.1
0.2
-0.4
0.0
-0.1
0.5
0.0
0.0
0.2
-0.30000000000000004
0.30000000000000004
0.30000000000000004
0.30000000000000004
0.1
0.0
0.5
0.30000000000000004
0.4
0.2
0.2
0.2
0.30000000000000004
-0.4
-0.30000000000000004
-0.1
-0.2
-0.2
-0.1
0.0
0.5
-0.30000000000000004
0.4
-0.2
-0.30000000000000004
0.1
0.0
-0.2
-0.30000000000000004
-0.2
-0.1
-0.30000000000000004
-0.4
-0.1
-0.4
-0.2
-0.2
0.0
-0.4
-0.4
0.0
-0.4
-0.30000000000000004
-0.30000000000000004
0.0
-0.1
0.5
0.4
0.1
0.2
-0.30000000000000004
-0.4
0.1
-0.2
0.2
0.4
0.2
0.30000000000000004
0.0
0.4
0.4
0.0
-0.30000000000000004
-0.2
0.2
0.1
-0.4
0.1
0.0
0.1
-0.4
-0.1
0.4
0.2
-0.4
0.4
0.30000000000000004
-0.1
0.4
0.30000000000000004
-0.2
0.1
0.5
0.2
-0.1
0.4
0.0
0.0
-0.4
0.30000000000000004
0.30000000000000004
0.5
0.0
0.5
0.4
0.30000000000000004
-0.30000000000000004
0.30000000000000004
-0.4
0.4
-0.4
0.30000000000000004
0.1
0.30000000000000004
0.2
0.30000000000000004
0.5
-0.1
-0.2
0.0
0.2
-0.1
0.0
0.4
0.5
-0.2
-0.2
-0.30000000000000004
0.0
0.30000000000000004
0.30000000000000004
0.5
0.5
0.2
0.30000000000000004
0.1
0.4
0.30000000000000004
0.4
-0.4
-0.4
-0.30000000000000004
0.2
-0.4
0.5
-0.2
0.0
0.0
0.5
-0.4
0.1
0.5
-0.2
0.4
0.1
-0.1
-0.1
0.1
0.2
0.5
0.2
0.0
-0.30000000000000004
0.30000000000000004
-0.2
0.0
-0.4
-0.2
0.5
-0.1
0.2
-0.1
-0.30000000000000004
0.5
-0.4
0.4
0.4
0.30000000000000004
0.2
-0.1
-0.4
0.4
-0.30000000000000004
-0.1
0.2
-0.4
0.5
-0.2
0.4
0.4
0.5
0.1
0.1
0.0
-0.30000000000000004
-0.2
-0.1
0.1
-0.2
0.0
-0.4
-0.30000000000000004
0.30000000000000004
0.4
-0.4
0.30000000000000004
-0.2
-0.4
0.5
-0.1
-0.2
-0.4
0.30000000000000004
-0.1
0.30000000000000004
0.0
0.1
0.30000000000000004
-0.2
0.1
0.0
0.1
-0.1
0.30000000000000004
0.30000000000000004
0.30000000000000004
0.0
0.30000000000000004
-0.4
0.0
0.4
0.1
0.1
0.2
0.1
-0.2
-0.2
0.1
0.0
-0.4
0.5
0.0
0.30000000000000004
-0.4
-0.1
0.1
0.30000000000000004
0.30000000000000004
-0.30000000000000004
0.30000000000000004
0.4
-0.2
0.1
0.1
-0.1
0.5
-0.30000000000000004
0.0
-0.4
-0.1
0.5
0.4
0.1
-0.2
0.5
-0.30000000000000004
0.2
0.30000000000000004
-0.4
-0.4
-0.4
0.4
0.2
0.1
0.4
0.1
-0.30000000000000004
0.4
0.2
-0.1
0.30000000000000004
0.30000000000000004
0.1
-0.30000000000000004
0.0
0.2
0.1
-0.2
0.5
-0.4
-0.4
-0.1
0.1
-0.1
-0.4
0.2
-0.30000000000000004
0.30000000000000004
0.0
-0.4
0.5
0.1
-0.30000000000000004
0.30000000000000004
0.1
0.4
-0.2
-0.30000000000000004
0.2
-0.2
0.2
-0.30000000000000004
-0.1
0.5
0.0
-0.4
0.5
-0.1
-0.30000000000000004
0.4
0.5
0.4
0.5
-0.1
0.2
0.0
0.30000000000000004
0.5
-0.1
0.5
-0.1
-0.2
0.2
0.2
-0.30000000000000004
-0.1
0.1
0.0
-0.1
0.4
0.30000000000000004
-0.2
-0.1
-0.1
-0.4
-0.4
-0.2
0.30000000000000004
0.1
0.4
-0.30000000000000004
0.1
0.4
0.0
-0.30000000000000004
-0.4
0.5
-0.2
0.1
0.30000000000000004
-0.2
-0.1
0.2
0.0
0.2
0.0
0.4
-0.4
-0.4
0.1
0.5
0.1
-0.1
-0.4
-0.2
-0.1
0.30000000000000004
0.1
-0.4
0.4
0.0
0.2
-0.1
0.5
-0.2
-0.30000000000000004
-0.4
0.2
0.4
0.1
0.2
0.2
0.5
-0.2
0.5
-0.30000000000000004
0.0
0.5
0.1
0.2
-0.1
0.30000000000000004
0.2
-0.1
0.5
-0.4
0.1
0.5
-0.4
-0.1
0.4
0.1
0.5
0.0
-0.30000000000000004
-0.1
0.0
0.5
0.1
0.2
0.1
0.5
-0.4
0.2
0.4
-0.1
-0.1
0.5
0.1
0.0
0.0
-0.4
-0.2
0.1
-0.30000000000000004
0.5
-0.4
0.2
-0.30000000000000004
-0.2
-0.30000000000000004
0.5
0.4
0.4
-0.2
-0.2
0.0
0.30000000000000004
0.5
0.0
0.1
-0.1
0.1
0.0
0.2
0.2
-0.30000000000000004
-0.1
-0.30000000000000004
0.5
0.4
-0.2
0.1
0.30000000000000004
-0.1
0.5
-0.1
0.30000000000000004
0.4
0.1
-0.2
0.4
0.0
0.30000000000000004
0.30000000000000004
0.30000000000000004
0.2
0.4
0.4
0.1
0.5
-0.1
-0.2
0.30000000000000004
0.2
-0.4
-0.4
0.4
0.0
-0.30000000000000004
-0.1
0.2
-0.1
0.0
-0.4
-0.4
0.2
0.0
0.5
0.2
-0.2
-0.30000000000000004
-0.2
0.5
0.5
0.0
0.1
-0.1
0.2
0.5
0.30000000000000004
-0.4
0.5
0.5
-0.1
-0.4
-0.2
0.0
-0.30000000000000004
0.30000000000000004
0.5
0.2
0.0
0.0
0.1
0.4
-0.30000000000000004
-0.30000000000000004
0.5
0.0
0.0
0.5
0.4
-0.30000000000000004
-0.2
-0.2
-0.4
0.1
0.30000000000000004
-0.30000000000000004
0.1
-0.4
-0.2
-0.4
0.2
0.0
0.30000000000000004
0.2
0.2
0.2
-0.2
0.5
-0.4
-0.30000000000000004
0.0
0.1
-0.2
0.30000000000000004
-0.2
0.2
0.2
0.30000000000000004
-0.2
0.4
-0.30000000000000004
-0.4
-0.30000000000000004
0.5
0.5
0.1
0.2
-0.30000000000000004
-0.2
0.1
0.30000000000000004
0.1
0.2
-0.30000000000000004
0.2
0.30000000000000004
-0.1
-0.2
0.1
-0.2
0.1
0.0
0.2
0.2
0.30000000000000004
0.30000000000000004
0.0
0.1
0.30000000000000004
-0.1
-0.30000000000000004
-0.4
0.30000000000000004
-0.2
0.5
-0.2
-0.30000000000000004
-0.1
0.0
0.4
0.2
0.5
0.4
-0.1
0.30000000000000004
-0.1
-0.4
0.4
0.0
-0.2
0.4
0.30000000000000004
-0.30000000000000004
-0.4
-0.1
0.1
-0.2
0.4
-0.1
-0.1
0.0
0.5
0.1
-0.1
0.30000000000000004
0.30000000000000004
0.0
-0.2
-0.30000000000000004
-0.30000000000000004
-0.4
-0.2
0.4
0.2
-0.2
-0.1
-0.1
0.1
0.0
-0.4
0.0
-0.30000000000000004
0.5
-0.2
0.30000000000000004
0.0
-0.1
-0.2
0.2
-0.2
0.5
0.1
0.5
-0.30000000000000004
-0.30000000000000004
0.0
0.5
0.2
-0.1
0.1
0.5
-0.2
-0.4
0.0
-0.30000000000000004
-0.1
0.2
0.4
0.0
0.0
-0.30000000000000004
-0.4
0.5
-0.30000000000000004
-0.30000000000000004
0.1
0.1
-0.4
-0.4
0.5
0.1
0.5
-0.1
0.2
0.0
0.0
0.4
-0.1
-0.4
-0.1
-0.2
0.1
0.0
-0.30000000000000004
0.1
-0.1
-0.4
-0.4
-0.2
0.0
-0.1
0.0
0.1
-0.2
0.2
0.30000000000000004
-0.1
-0.4
-0.4
0.1
0.5
0.2
-0.30000000000000004
0.2
0.5
0.0
0.1
0.1
0.30000000000000004
-0.4
-0.2
-0.2
-0.2
0.1
-0.4
0.1
0.30000000000000004
-0.2
0.30000000000000004
0.2
0.4
-0.1
-0.30000000000000004
0.4
-0.30000000000000004
0.5
0.1
0.0
-0.1
0.30000000000000004
0.2
-0.30000000000000004
0.1
-0.1
0.1
0.30000000000000004
-0.1
-0.1
-0.4
0.30000000000000004
0.0
-0.1
-0.4
0.5
-0.1
-0.1
0.0
-0.1
-0.2
0.2
0.1
0.0
-0.30000000000000004
0.30000000000000004
0.4
0.5
0.0
0.4
0.5
-0.30000000000000004
-0.30000000000000004
0.5
0.2
0.4
0.2
-0.2
0.2
0.4
0.4
-0.1
-0.30000000000000004
0.4
-0.1
-0.30000000000000004
-0.1
0.0
-0.1
-0.30000000000000004
-0.4
-0.30000000000000004
0.2
-0.30000000000000004
0.0
0.0
-0.4
-0.4
0.30000000000000004
-0.4
0.4
0.4
0.30000000000000004
0.1
-0.30000000000000004
-0.1
0.4
0.5
0.1
-0.1
-0.30000000000000004
0.1
0.5
-0.2
0.30000000000000004
0.30000000000000004
0.2
0.30000000000000004
0.4
0.5
-0.30000000000000004
-0.1
-0.30000000000000004
0.2
0.0
-0.30000000000000004
0.30000000000000004
0.2
0.30000000000000004
0.1
0.30000000000000004
0.0
0.1
-0.30000000000000004
-0.2
-0.2
0.2
0.5
-0.1
0.5
0.0
0.4
0.1
0.2
0.0
0.30000000000000004
-0.4
0.30000000000000004
0.5
0.5
0.0
0.30000000000000004
-0.30000000000000004
0.2
-0.30000000000000004
0.2
-0.4
0.1
0.4
0.1
0.4
0.0
0.0
0.0
-0.4
0.5
0.4
0.1
0.5
-0.1
-0.1
0.0
-0.2
0.1
-0.30000000000000004
-0.2
0.1
0.5
0.5
-0.30000000000000004
0.0
-0.4
0.0
-0.4
0.2
0.2
-0.2
0.5
0.0
0.2
0.0
0.30000000000000004
0.4
0.30000000000000004
0.30000000000000004
0.1
-0.4
-0.4
-0.4
0.4
-0.4
-0.30000000000000004
-0.4
-0.1
0.0
-0.2
-0.2
0.1
0.1
0.0
-0.4
-0.4
0.0
0.1
0.30000000000000004
-0.4
0.5
0.30000000000000004
0.4
0.5
0.4
-0.1
-0.1
0.4
-0.1
-0.1
0.4
0.1
-0.30000000000000004
-0.1
-0.1
-0.1
-0.30000000000000004
0.1
0.0
-0.30000000000000004
0.2
0.5
0.2
0.1
-0.1
0.0
-0.4
-0.1
0.30000000000000004
0.4
0.5
0.4
0.2
0.4
0.30000000000000004
-0.2
0.1
0.1
-0.30000000000000004
0.0
-0.1
0.2
0.5
-0.30000000000000004
0.30000000000000004
0.0
-0.2
0.0
0.5
0.4
-0.30000000000000004
0.1
0.0
0.2
-0.1
0.4
0.30000000000000004
0.30000000000000004
0.5
0.5
0.4
-0.2
-0.30000000000000004
0.30000000000000004
0.5
0.1
0.5
-0.1
0.0
0.4
0.5
0.1
-0.1
-0.2
-0.4
0.4
-0.1
0.30000000000000004
0.4
-0.2
0.1
0.4
-0.1
0.4
0.30000000000000004
-0.30000000000000004
0.4
0.2
-0.1
-0.30000000000000004
-0.30000000000000004
0.0
-0.4
0.0
0.30000000000000004
0.1
-0.4
0.2
0.2
0.4
0.4
0.4
-0.30000000000000004
0.5
-0.4
0.2
0.1
0.0
-0.4
-0.30000000000000004
0.0
0.30000000000000004
-0.30000000000000004
-0.1
-0.2
-0.1
0.0
0.5
0.2
-0.4
0.2
-0.30000000000000004
0.4
0.1
-0.1
-0.30000000000000004
0.4
0.5
0.0
0.0
0.0
0.2
-0.30000000000000004
-0.2
-0.30000000000000004
0.30000000000000004
0.0
0.0
0.1
0.4
0.30000000000000004
0.30000000000000004
0.2
0.30000000000000004
0.30000000000000004
-0.2
-0.4
0.2
0.30000000000000004
0.0
0.2
-0.2
-0.2
-0.1
0.5
0.5
0.2
0.1
-0.4
0.5
-0.2
0.1
0.1
0.0
0.5
0.4
0.4
0.30000000000000004
0.1
0.2
0.4
0.30000000000000004
0.0
0.5
0.2
0.4
-0.1
0.5
0.1
0.2
-0.1
-0.2
-0.4
0.30000000000000004
0.30000000000000004
0.5
0.30000000000000004
0.4
0.1
0.5
0.4
-0.1
-0.4
0.30000000000000004
-0.30000000000000004
-0.2
0.1
0.4
0.5
0.1
-0.2
-0.1
-0.1
0.4
-0.30000000000000004
0.4
0.0
0.4
-0.2
-0.30000000000000004
0.5
-0.2
0.5
-0.2
0.5
0.2
-0.2
-0.4
-0.1
0.5
0.0
0.0
-0.4
-0.1
0.2
-0.30000000000000004
0.2
0.5
-0.4
-0.2
-0.4
-0.30000000000000004
0.30000000000000004
-0.30000000000000004
-0.1
0.0
-0.1
-0.30000000000000004
0.0
-0.2
-0.30000000000000004
0.4
0.30000000000000004
0.30000000000000004
0.1
-0.30000000000000004
0.4
0.0
-0.2
-0.2
0.2
-0.2
0.30000000000000004
0.4
0.5
0.4
-0.4
-0.30000000000000004
-0.1
0.5
0.1
0.0
0.30000000000000004
-0.30000000000000004
-0.4
-0.2
-0.2
0.0
0.1
0.30000000000000004
0.1
0.30000000000000004
0.0
0.2
0.5
0.2
0.1
0.1
0.2
-0.4
0.1
0.1
0.0
-0.30000000000000004
-0.4
-0.2
-0.30000000000000004
0.4
-0.30000000000000004
-0.30000000000000004
-0.2
0.2
0.4
0.0
-0.1
0.0
0.2
0.0
0.5
0.5
0.4
0.30000000000000004
-0.2
-0.30000000000000004
0.5
0.5
-0.4
-0.2
0.4
0.1
0.30000000000000004
-0.2
-0.1
-0.4
-0.30000000000000004
0.30000000000000004
0.1
0.5
0.5
0.5
0.2
0.1
0.2
-0.2
0.1
-0.2
0.0
0.0
0.4
0.2
-0.4
0.5
0.4
-0.30000000000000004
0.2
0.2
0.1
-0.1
0.0
-0.30000000000000004
-0.1
0.4
-0.1
0.30000000000000004
0.0
0.30000000000000004
-0.1
-0.1
0.5
-0.1
-0.2
-0.30000000000000004
-0.1
-0.2
0.30000000000000004
0.5
0.5
0.5
0.2
0.1
0.4
-0.30000000000000004
0.5
0.30000000000000004
-0.30000000000000004
-0.4
0.1
0.2
0.1
-0.30000000000000004
0.2
0.4
0.0
0.30000000000000004
0.1
0.1
-0.30000000000000004
-0.2
-0.30000000000000004
0.30000000000000004
0.30000000000000004
-0.30000000000000004
0.1
-0.4
0.4
0.0
-0.2
0.0
-0.30000000000000004
0.2
0.2
0.30000000000000004
-0.4
-0.4
-0.2
0.2
-0.1
-0.2
0.4
-0.2
0.4
0.4
0.0
-0.2
0.0
0.30000000000000004
0.0
-0.2
-0.1
0.0
-0.2
0.30000000000000004
0.0
-0.2
-0.1
-0.30000000000000004
0.2
0.1
0.1
0.5
-0.1
0.4
-0.4
0.2
-0.30000000000000004
0.1
0.0
0.5
-0.1
-0.2
-0.1
-0.4
-0.1
-0.2
0.5
-0.1
-0.2
-0.2
0.5
0.1
-0.4
0.30000000000000004
0.0
0.1
0.2
0.2
0.30000000000000004
0.2
0.4
0.4
-0.30000000000000004
-0.1
0.30000000000000004
0.1
0.30000000000000004
0.0
0.1
-0.2
-0.1
-0.1
-0.1
0.5
0.1
0.30000000000000004
0.1
-0.30000000000000004
-0.2
0.5
0.2
0.0
0.5
0.2
0.4
0.1
0.0
-0.2
0.1
-0.4
0.0
-0.1
0.4
0.1
0.1
-0.1
0.0
0.2
0.30000000000000004
0.30000000000000004
0.1
0.5
0.0
-0.2
0.1
0.5
-0.4
-0.1
0.2
-0.1
0.1
0.5
-0.2
0.2
-0.30000000000000004
0.4
0.2
0.5
0.4
-0.1
0.30000000000000004
0.1
0.1
-0.2
0.4
-0.1
0.1
-0.4
-0.30000000000000004
0.4
0.1
-0.2
0.30000000000000004
-0.30000000000000004
0.30000000000000004
-0.30000000000000004
0.30000000000000004
0.1
-0.30000000000000004
-0.2
0.1
-0.2
-0.4
0.30000000000000004
0.1
-0.2
0.2
0.2
0.1
0.1
0.0
0.4
-0.1
0.2
0.30000000000000004
0.1
0.30000000000000004
-0.2
0.5
0.1
0.4
0.4
0.30000000000000004
0.0
0.5
-0.1
-0.1
0.5
0.2
0.4
-0.30000000000000004
0.2
-0.2
-0.30000000000000004
-0.30000000000000004
-0.4
-0.4
0.0
-0.2
0.2
0.1
0.30000000000000004
0.30000000000000004
0.1
0.2
-0.1
0.4
0.0
0.5
0.4
-0.1
0.0
0.2
0.4
0.4
0.0
-0.2
-0.2
0.2
0.5
0.0
-0.30000000000000004
0.1
0.1
0.30000000000000004
-0.4
0.2
-0.1
0.30000000000000004
0.4
-0.1
-0.4
0.2
0.4
-0.30000000000000004
0.0
0.5
0.1
0.4
0.5
-0.2
0.30000000000000004
0.1
0.2
0.4
0.0
-0.1
-0.2
0.5
0.4
0.0
0.4
-0.4
0.4
0.1
0.2
-0.2
0.0
0.1
0.4
0.0
-0.1
0.0
0.5
0.4
-0.4
0.1
-0.2
0.1
-0.30000000000000004
-0.4
-0.30000000000000004
0.1
-0.1
-0.1
0.0
0.2
-0.2
-0.1
-0.1
0.0
-0.1
-0.1
0.2
0.0
0.4
0.30000000000000004
0.5
-0.4
0.1
-0.4
-0.2
-0.4
0.0
0.5
0.5
-0.4
-0.30000000000000004
0.1
-0.2
0.4
0.1
0.0
-0.4
0.0
-0.1
0.1
0.5
-0.4
-0.30000000000000004
0.1
-0.30000000000000004
0.1
0.1
0.1
0.0
0.30000000000000004
-0.2
-0.4
-0.2
-0.2
-0.1
0.5
0.30000000000000004
0.0
-0.4
0.5
0.0
0.1
0.1
0.1
0.4
0.4
0.4
0.5
0.0
-0.2
-0.4
0.4
-0.2
-0.1
-0.30000000000000004
0.4
0.0
0.1
0.0
0.2
-0.30000000000000004
-0.4
0.0
-0.30000000000000004
0.1
-0.2
0.1
-0.2
0.30000000000000004
0.30000000000000004
-0.30000000000000004
0.0
0.2
0.1
0.1
0.5
0.0
0.30000000000000004
0.30000000000000004
-0.2
0.0
-0.2
-0.4
0.30000000000000004
-0.1
0.2
0.4
0.1
0.2
0.2
0.1
-0.4
0.2
0.1
0.5
0.0
0.5
0.1
0.5
-0.4
0.4
-0.1
-0.2
0.1
0.5
0.2
-0.30000000000000004
0.5
0.30000000000000004
0.2
0.4
0.5
0.0
0.0
0.1
0.0
0.1
0.1
0.30000000000000004
-0.2
-0.1
-0.2
-0.4
0.5
0.2
0.1
0.4
0.5
-0.2
-0.1
0.5
0.1
-0.4
0.0
0.4
0.0
0.1
-0.1
0.30000000000000004
0.2
-0.30000000000000004
-0.2
-0.2
0.5
-0.4
-0.4
-0.1
-0.2
-0.30000000000000004
-0.30000000000000004
0.1
-0.1
-0.1
0.0
-0.30000000000000004
0.5
-0.2
0.0
-0.1
-0.1
0.30000000000000004
0.0
0.1
-0.2
-0.4
-0.30000000000000004
-0.30000000000000004
-0.4
-0.1
0.4
0.2
0.0
-0.30000000000000004
-0.2
-0.2
0.0
0.4
0.2
-0.2
0.5
-0.4
0.30000000000000004
-0.1
0.1
0.5
-0.1
0.30000000000000004
0.4
0.2
-0.2
0.30000000000000004
-0.30000000000000004
-0.30000000000000004
0.1
-0.1
-0.1
-0.4
0.5
0.4
-0.2
0.5
0.5
-0.2
0.4
-0.2
0.0
0.0
0.30000000000000004
0.4
0.5
-0.1
0.4
0.30000000000000004
-0.30000000000000004
0.1
0.2
0.30000000000000004
0.1
0.2
0.2
0.30000000000000004
-0.2
-0.1
0.2
0.5
0.4
-0.4
-0.1
-0.30000000000000004
0.30000000000000004
0.2
0.30000000000000004
0.30000000000000004
0.1
0.30000000000000004
0.0
-0.4
0.4
-0.30000000000000004
0.30000000000000004
-0.4
-0.2
-0.2
0.1
-0.4
-0.1
-0.4
-0.2
0.30000000000000004
-0.4
0.1
0.2
0.0
-0.1
-0.1
0.4
0.2
0.2
-0.30000000000000004
-0.2
-0.4
0.1
-0.1
0.0
-0.1
-0.30000000000000004
0.2
0.4
0.0
-0.2
0.4
0.5
0.4
-0.30000000000000004
0.4
0.1
0.4
0.4
0.30000000000000004
0.0
-0.4
0.1
-0.4
0.2
0.1
0.4
0.2
0.4
-0.4
-0.30000000000000004
-0.4
0.4
-0.4
0.1
0.2
0.4
0.1
0.4
-0.1
0.4
-0.30000000000000004
-0.4
0.5
-0.4
0.0
-0.2
-0.1
0.0
-0.30000000000000004
0.30000000000000004
0.4
0.0
-0.30000000000000004
-0.1
0.5
0.30000000000000004
-0.4
-0.1
0.5
0.2
0.0
-0.30000000000000004
-0.30000000000000004
0.4
0.0
0.4
0.2
0.0
-0.4
0.5
0.2
0.1
0.2
0.4
0.30000000000000004
0.1
0.30000000000000004
0.2
0.5
-0.2
0.5
0.0
-0.4
-0.30000000000000004
-0.2
0.5
0.30000000000000004
-0.30000000000000004
0.0
0.0
0.2
0.1
0.2
0.1
0.4
-0.2
0.0
-0.30000000000000004
-0.30000000000000004
0.30000000000000004
-0.4
0.2
-0.4
0.1
0.0
-0.1
0.5
0.5
0.30000000000000004
0.1
-0.4
-0.30000000000000004
0.0
0.2
0.0
-0.4
0.4
0.2
-0.2
-0.30000000000000004
-0.30000000000000004
-0.4
-0.4
0.30000000000000004
-0.2
0.4
-0.1
0.5
-0.30000000000000004
0.4
0.4
0.0
0.30000000000000004
-0.1
0.1
0.5
-0.4
-0.30000000000000004
0.1
0.2
-0.2
-0.30000000000000004
0.4
-0.30000000000000004
-0.2
-0.30000000000000004
0.30000000000000004
0.4
0.1
0.5
0.0
0.30000000000000004
0.4
0.0
0.2
-0.30000000000000004
-0.1
-0.4
0.30000000000000004
-0.30000000000000004
-0.2
0.5
0.0
0.5
0.30000000000000004
-0.4
0.30000000000000004
-0.4
0.0
0.1
0.2
-0.2
0.1
0.0
0.4
-0.4
0.4
0.5
0.1
0.5
-0.30000000000000004
0.0
-0.1
-0.30000000000000004
-0.2
0.1
0.5
0.0
0.5
-0.1
0.2
-0.2
-0.2
0.1
-0.1
0.1
0.4
0.1
-0.2
-0.2
0.5
0.0
0.1
-0.4
0.0
-0.4
0.1
-0.2
-0.4
-0.2
-0.2
0.5
0.30000000000000004
0.5
0.1
-0.1
0.1
-0.30000000000000004
-0.4
-0.30000000000000004
0.30000000000000004
-0.2
-0.4
0.4
-0.4
0.5
0.4
-0.4
0.0
0.1
0.5
-0.30000000000000004
0.30000000000000004
-0.2
0.5
0.0
0.30000000000000004
-0.1
0.1
0.30000000000000004
0.1
0.0
-0.30000000000000004
0.1
-0.1
0.2
0.5
0.5
0.2
0.2
0.30000000000000004
0.5
-0.4
0.1
-0.2
-0.4
-0.4
0.30000000000000004
-0.4
-0.1
0.2
0.4
-0.4
-0.1
0.4
-0.4
0.5
-0.4
0.0
-0.1
0.2
0.5
0.0
0.30000000000000004
-0.2
0.4
0.0
0.5
-0.2
0.5
0.5
0.30000000000000004
0.4
-0.30000000000000004
-0.4
0.1
0.0
0.0
0.30000000000000004
0.4
0.30000000000000004
0.2
-0.2
0.2
-0.1
0.2
0.0
0.2
-0.1
0.5
-0.30000000000000004
0.4
0.2
-0.2
0.1
0.1
-0.1
0.1
0.5
0.4
0.4
0.5
-0.30000000000000004
0.5
0.2
0.0
0.30000000000000004
0.4
0.30000000000000004
-0.30000000000000004
-0.4
0.1
-0.2
0.4
0.4
0.0
0.5
-0.4
-0.4
0.4
-0.1
-0.1
-0.2
0.0
-0.30000000000000004
0.4
0.1
-0.4
0.0
0.1
-0.2
-0.1
0.5
0.30000000000000004
-0.2
-0.4
0.4
0.30000000000000004
0.2
0.2
0.1
0.30000000000000004
0.0
-0.2
-0.4
0.30000000000000004
0.0
0.1
0.4
0.5
-0.2
-0.4
0.2
-0.1
0.30000000000000004
0.5
0.0
0.0
0.4
0.2
0.0
-0.4
-0.30000000000000004
-0.1
0.5
0.30000000000000004
0.4
-0.4
-0.1
-0.30000000000000004
0.1
-0.2
0.4
0.0
0.4
0.5
-0.2
-0.4
0.4
0.30000000000000004
0.5
0.1
0.0
-0.4
0.1
0.0
0.1
0.1
-0.30000000000000004
-0.2
-0.2
0.4
-0.4
0.0
0.5
0.0
-0.4
0.1
0.2
0.0
0.1
0.5
0.2
0.1
0.2
-0.2
0.0
-0.30000000000000004
0.5
0.5
-0.1
-0.4
-0.4
0.2
0.4
0.4
0.1
0.5
0.4
-0.1
-0.30000000000000004
0.5
0.30000000000000004
0.2
0.30000000000000004
-0.4
0.0
-0.4
0.1
0.1
0.0
-0.30000000000000004
0.30000000000000004
-0.2
0.30000000000000004
0.5
0.1
0.2
0.5
0.1
-0.1
0.30000000000000004
0.1
-0.2
0.30000000000000004
-0.30000000000000004
0.4
0.5
0.1
0.1
-0.2
-0.30000000000000004
0.2
0.5
-0.30000000000000004
-0.30000000000000004
-0.1
0.30000000000000004
-0.2
0.2
-0.2
0.5
0.0
-0.30000000000000004
-0.2
0.2
0.0
-0.2
-0.4
0.2
-0.2
-0.30000000000000004
0.4
0.1
-0.2
0.2
0.0
-0.30000000000000004
0.30000000000000004
0.0
-0.30000000000000004
0.5
0.4
-0.30000000000000004
0.0
-0.30000000000000004
-0.1
-0.4
-0.1
0.0
0.1
0.30000000000000004
0.5
0.1
-0.4
-0.1
-0.2
0.0
0.5
-0.30000000000000004
-0.2
0.30000000000000004
0.2
0.2
-0.1
-0.4
0.2
-0.30000000000000004
0.5
0.0
0.30000000000000004
-0.2
-0.1
-0.2
0.1
0.4
-0.2
0.1
-0.1
0.1
0.2
-0.1
0.1
0.1
0.30000000000000004
0.4
0.4
0.2
-0.2
0.2
0.2
0.4
0.30000000000000004
-0.4
-0.2
0.0
0.5
-0.1
0.30000000000000004
0.1
-0.30000000000000004
0.1
0.5
-0.30000000000000004
0.4
0.30000000000000004
-0.1
-0.30000000000000004
-0.4
0.0
0.0
-0.2
0.2
0.5
-0.2
0.4
0.2
0.0
0.1
0.4
0.5
-0.1
0.2
0.5
0.1
-0.30000000000000004
0.2
0.1
-0.1
0.30000000000000004
-0.4
0.0
0.2
-0.2
-0.2
0.5
0.4
0.1
0.30000000000000004
-0.4
-0.4
-0.1
-0.1
0.2
0.0
0.2
0.1
0.4
0.30000000000000004
-0.4
0.30000000000000004
-0.30000000000000004
0.4
-0.30000000000000004
0.5
0.30000000000000004
-0.2
-0.2
-0.1
0.30000000000000004
0.2
0.5
0.30000000000000004
0.30000000000000004
-0.1
-0.4
0.5
-0.4
-0.30000000000000004
0.1
-0.30000000000000004
0.1
0.2
-0.4
-0.30000000000000004
0.0
0.1
0.4
0.4
0.4
0.2
0.1
0.30000000000000004
0.0
-0.1
0.5
0.5
0.1
0.0
0.30000000000000004
0.5
-0.1
-0.2
0.4
0.4
0.5
-0.4
0.30000000000000004
0.1
0.30000000000000004
0.1
-0.4
0.1
-0.4
0.5
0.30000000000000004
0.5
-0.2
0.0
0.2
-0.30000000000000004
-0.30000000000000004
0.30000000000000004
0.30000000000000004
0.2
0.2
0.30000000000000004
0.2
-0.1
0.30000000000000004
-0.4
0.4
0.4
0.0
0.30000000000000004
0.1
0.5
0.2
-0.30000000000000004
-0.2
0.2
0.1
0.30000000000000004
0.5
0.2
0.2
-0.30000000000000004
-0.4
0.5
0.30000000000000004
-0.1
-0.2
0.0
-0.30000000000000004
-0.2
0.1
0.5
0.5
0.1
-0.30000000000000004
0.0
0.1
0.2
-0.30000000000000004
0.4
0.30000000000000004
0.4
0.4
0.0
0.4
-0.1
0.5
0.1
-0.1
0.2
0.5
-0.2
0.0
0.0
0.5
0.2
0.2
0.0
0.4
-0.1
0.0
-0.1
0.4
-0.30000000000000004
0.4
0.5
-0.30000000000000004
-0.4
0.0
0.1
-0.2
-0.1
0.5
-0.1
0.0
0.4
0.5
0.0
-0.4
-0.30000000000000004
-0.2
0.1
0.0
0.0
0.0
-0.30000000000000004
0.0
-0.30000000000000004
0.5
0.1
0.30000000000000004
0.1
-0.1
0.5
0.4
-0.30000000000000004
-0.2
-0.30000000000000004
0.30000000000000004
0.0
0.0
-0.1
0.5
0.2
0.0
0.2
0.30000000000000004
0.5
0.2
0.0
0.5
0.30000000000000004
-0.4
0.0
0.30000000000000004
0.30000000000000004
-0.4
-0.4
-0.30000000000000004
0.5
0.1
0.30000000000000004
0.4
-0.2
0.30000000000000004
0.5
0.30000000000000004
-0.1
0.30000000000000004
0.0
0.0
-0.2
0.5
0.0
0.2
-0.1
0.1
0.1
0.4
-0.30000000000000004
0.0
0.30000000000000004
0.4
0.4
-0.1
-0.2
-0.4
0.2
0.1
-0.30000000000000004
-0.1
-0.30000000000000004
0.4
0.4
0.4
-0.2
0.5
0.30000000000000004
0.30000000000000004
0.4
0.1
0.2
-0.1
0.0
-0.30000000000000004
0.1
-0.2
0.5
0.4
0.30000000000000004
0.1
-0.2
0.30000000000000004
0.0
0.30000000000000004
-0.30000000000000004
0.5
-0.2
0.4
-0.2
0.4
0.2
0.30000000000000004
0.30000000000000004
0.2
-0.2
0.2
0.5
0.0
-0.4
0.2
0.5
0.5
-0.1
0.1
-0.1
-0.2
0.1
-0.4
-0.30000000000000004
0.0
-0.30000000000000004
0.5
0.4
0.5
0.1
0.4
-0.4
0.1
-0.4
-0.1
0.1
0.5
0.0
-0.1
0.4
-0.2
-0.2
-0.2
0.1
0.30000000000000004
0.1
0.4
0.0
0.0
-0.1
0.5
0.1
-0.1
0.1
0.2
0.5
0.0
0.0
0.1
-0.1
0.5
-0.2
0.1
0.2
-0.2
0.1
-0.2
0.4
0.0
0.2
0.0
-0.30000000000000004
0.30000000000000004
0.5
0.4
0.30000000000000004
-0.2
0.1
-0.1
-0.1
0.4
0.2
-0.4
0.0
0.30000000000000004
0.4
-0.30000000000000004
0.4
-0.2
-0.4
-0.2
-0.1
-0.1
-0.2
0.4
0.0
-0.1
0.0
0.2
-0.30000000000000004
-0.30000000000000004
-0.4
-0.30000000000000004
0.1
0.0
0.30000000000000004
-0.1
0.5
-0.2
-0.4
0.2
-0.1
-0.2
0.0
-0.2
0.4
0.5
-0.30000000000000004
0.5
0.0
0.1
-0.2
-0.2
0.5
-0.30000000000000004
-0.30000000000000004
-0.19974603369582367
2.212000127377049E-5
0.20203967962871772
0.30011381889961564
-0.006044799862384931
0.4019870662305915
0.30141774695207896
-9.34500303217244E-7
0.19999547785374444
-0.3005979194858451
0.3000629582757176
0.3000025064461108
0.5000234993329721
0.29998692665739896
0.500323033280805
-0.40002065168268386
-0.40000275478748054
-0.399999952148961
0.3000250443438714
-0.008699528476405077
-0.19994167853287403
0.5034721305154812
-0.40021164435305817
-0.297291146717738
0.4999020627721538
-0.30000572888391214
-0.10002245595200034
0.4996013802961845
0.10000194775816601
0.30204604227790843
-0.0999965746593022
0.09970079088306393
0.4999999291044634
-0.40016379419360426
-0.30012017885021175
0.300004877726326
0.11342088625631173
0.5142075075359833
-0.31995005892053824
-0.4092919124341051
-0.40023687488946597
0.10454340995917646
1.6707386077675735E-6
0.19829137718498796
-0.3999662114573093
-0.10000399126363116
0.10103076455871009
0.4856927832258305
0.5000001171177647
0.500018621077354
-0.09999849137795291
-0.3000044246083931
-3.1261773392150903E-5
4.097133728491197E-5
-0.1999974043066672
-0.09196268433423671
-0.1000039898153737
-0.39998027165092814
-0.40000462062756365
0.2993432449966452
-0.20003839568633386
0.0968503943570955
-0.29999530792873125
-0.0999992477061614
-4.234071912794557E-4
-0.09983091020298798
0.20391343682881524
0.5000142339838475
0.40000530885453517
0.0999998871660888
0.10002370814810961
-0.20971446407798058
0.5058754640635748
0.3999922214548758
-0.40083524383887825
0.10003647777885463
0.2999445633478615
0.09999974123390667
-0.20004416331519428
-3.740573429398394E-5
0.20130868390033657
-0.10135256591136825
0.40004083817085023
-0.09012459715996392
-0.11710198856826119
0.20053552858161958
0.3048749359578964
0.3998663270908311
0.20006641818659066
-0.1993348802152652
2.153051243604353E-4
0.09998245162471492
-0.39999792909373616
-7.54440606311486E-4
-0.1009591401556196
-0.2999940711863776
-0.29415138149023884
0.10077230052627331
-0.3027084089497261
0.10232947238439842
-0.4003027603333129
0.1999899492612916
0.30059385315582837
5.251388027980919E-6
0.3000746028177757
-0.4001327162003836
0.005810089488902991
-0.10257170031211074
0.20001455161196457
-0.1998566559749402
0.09999990959039899
-0.19995330023751276
0.5000177941709266
-0.1999701330191809
-0.10007429438228643
-0.3000004142906491
0.10000255985954097
-0.10002945371012835
0.397912037072267
0.0999524830324841
0.40037654934229944
0.5000283706253882
0.4996751163380354
-0.3999962179045333
0.09989060772688034
0.4000085690948425
-0.10045523209762272
0.30007499776885577
-0.20151468566915426
0.3023838193662452
-0.22529174713956385
-7.124234906417476E-5
-0.19932166774894208
0.20003897934778908
-0.3942210684573964
0.3009094517207712
0.3995814236344855
-0.3000316608614968
-0.40318604953550075
-0.20148497171623111
-1.1686489770164288E-4
0.10031485206935546
0.300977818174147
0.1999896730728821
0.5020823015212906
0.5001454210121393
-0.10110868141917217
0.09998669411471593
0.09903636768425673
-0.4023687731936103
0.3000000721696777
0.0999927157098376
-0.09999930868722287
0.3015023022508664
-0.10001697915325629
0.003601204850223982
-0.0999975265427761
0.2991645535092184
-0.39997977174249844
-8.208843302320469E-4
0.3999999543339445
0.001036342543045086
0.2046570826295375
-0.299962458529459
-0.29999840935033256
-0.1000082298948104
-0.20006994216424248
0.4005632415780901
-0.39327176410446746
0.49998728823380256
0.10000003526011068
0.3012266424175533
0.39985434357282224
-0.40106936296384244
-0.40362746646176245
-0.19536205962998854
0.0060566316824253955
-0.29948457820063396
-0.19999942714689742
-0.0035086432402990936
0.30435082288573106
0.09630102327383308
0.19999853429011613
0.10010896628057138
-0.10169463928666231
-0.3991344710523964
0.3000058409586598
0.39993808077869863
-0.10000542528343043
-0.09999494069527981
0.29999390346052146
-0.20000137683646146
0.09999946312363585
-0.3996951011116118
0.10003449829236948
0.29999872151779394
0.39782969323421585
-0.09998251978791592
0.5003061979279183
0.2942675138617333
0.10025396630417657
-0.19997787999872677
0.20203967962871772
-0.39988618110038443
-0.30604479986238553
0.5019870662305902
0.30141774695207896
0.0999990654996967
-0.10000452214625545
0.4994020805141551
-0.19993704172428226
-0.0999974935538894
2.3499332971540703E-5
0.49998692665739874
3.230332808038966E-4
-0.20002065168268282
0.3999972452125195
0.30000004785103906
-0.3999749556561287
0.29130047152359495
0.4000583214671248
-0.19652786948451936
0.2997883556469419
-0.297291146717738
0.29990206277215387
-0.20000572888391266
-0.400022455952
-0.20039861970381584
0.40000194775816644
0.0020460422779079186
0.4000034253406978
0.19970079088306356
-0.10000007089553656
0.49983620580639576
-0.10012017885021111
-0.19999512227367297
-0.08657911374368828
0.2142075075359818
0.38004994107946183
0.3907080875658949
0.19976312511053398
0.40454340995917654
-0.39999832926139245
-0.40170862281501185
0.4000337885426907
0.39999600873636915
0.10103076455871009
0.38569278322583056
0.4000001171177629
0.3000186210773541
0.30000150862204694
-4.4246083924415285E-6
0.09996873822660794
0.20004097133728513
-0.299997404306667
0.30803731566576376
-0.20000398981537415
0.4000197283490719
-0.40000462062756365
-6.567550033546713E-4
0.299961604313666
-0.2031496056429042
4.692071268096619E-6
-0.2999992477061619
-4.234071912794557E-4
1.6908979701222925E-4
0.20391343682881524
1.423398384638468E-5
-0.1999946911454655
0.3999998871660894
0.30002370814810914
0.4902855359220202
0.3058754640635748
0.49999222145487576
0.09916475616112237
-0.1999635222211452
-5.543665213853486E-5
0.2999997412339067
0.4999558366848056
0.0999625942657063
0.3013086839003371
-0.20135256591136838
4.0838170851184814E-5
0.3098754028400353
0.18289801143173914
0.1005355285816204
-0.3951250640421037
-0.1001336729091695
0.30006641818659
-0.1993348802152652
-0.2997846948756389
-0.30001754837528516
-0.19999792909373595
-0.40075444060631205
-0.1009591401556196
0.3000059288136225
0.005848618509761068
-0.39922769947372694
-0.0027084089497263937
0.20232947238439827
0.49969723966668755
-0.1000100507387082
0.30059385315582837
-0.3999947486119717
0.4000746028177757
0.09986728379961658
-0.3941899105110972
-0.40257170031210926
-0.29998544838803454
-0.29985665597493916
-9.04096008871371E-8
-0.39995330023751224
0.5000177941709266
0.20002986698081912
-0.10007429438228643
0.39999958570935096
2.5598595409741485E-6
0.3999705462898715
-0.402087962927733
0.1999524830324844
-0.09962345065769995
-0.3999716293746109
0.19967511633803522
3.782095467200572E-6
-0.30010939227312
-0.39999143090515754
0.09954476790237729
0.40007499776885574
0.09848531433084531
0.0023838193662448085
-0.025291747139563506
-0.10007124234906403
0.10067833225105816
3.897934778874078E-5
0.005778931542603343
-0.2990905482792289
0.09958142363448508
-3.166086149741444E-5
0.09681395046449967
-0.3014849717162305
0.19988313510229838
0.4003148520693554
-0.19902218182585296
0.4999896730728811
-0.3979176984787098
0.5001454210121393
-0.2011086814191725
0.29998669411471607
-0.10096363231574328
-0.10236877319361037
-0.09999992783032156
-0.10000728429016241
-0.3999993086872222
-0.19849769774913487
-0.10001697915325629
0.3036012048502238
0.5000024734572246
-0.20083544649078133
-0.29997977174249846
0.39917911566976827
-0.3000000456660556
0.001036342543045086
0.2046570826295375
3.7541470540625105E-5
0.5000015906496673
0.4999917701051896
-0.10006994216424317
0.20056324157809022
-0.39327176410446746
0.09998728823380248
0.20000003526011065
-0.19877335758244735
-1.4565642717746325E-4
-0.40106936296384244
0.49637253353823757
0.10463794037001191
0.4060566316824255
-0.39948457820063393
-0.19999942714689742
-0.10350864324029913
0.40435082288573104
-0.00369897672616688
-0.40000146570988415
-0.3998910337194291
-0.20169463928666198
0.30086552894760366
0.20000584095865992
-6.191922130031817E-5
-0.2000054252834306
-0.09999494069527981
-0.2000060965394776
-0.20000137683646146
-0.4000005368763637
-0.2996951011116118
-0.39996550170763057
-0.20000127848220736
-0.4021703067657842
-0.19998251978791645
0.20030619792791937
-0.005732486138266205
-0.30000000000000004
0.30000000000000004
0.0
0.30000000000000004
0.30000000000000004
-0.2
0.0
-0.2
-0.1
0.0
0.0
-0.2
0.30000000000000004
-0.1
-0.2
0.1
0.5
0.30000000000000004
-0.1
0.4
0.1
0.5
-0.2
-0.2
0.4
0.1
0.30000000000000004
0.1
0.0
-0.2
0.1
0.2
0.2
-0.2
0.0
-0.4
0.5
0.2
-0.1
-0.2
0.4
0.5
0.5
-0.4
0.5
-0.4
-0.30000000000000004
-0.2
0.30000000000000004
0.1
-0.4
-0.4
-0.1
-0.1
0.1
-0.4
0.4
-0.4
-0.4
0.0
-0.1
0.4
-0.2
0.0
0.1
0.30000000000000004
-0.1
0.0
0.5
0.0
-0.2
0.1
-0.1
0.30000000000000004
-0.4
0.0
0.5
0.2
0.30000000000000004
0.0
-0.30000000000000004
-0.4
0.5
-0.1
-0.30000000000000004
0.2
-0.2
-0.4
0.0
0.30000000000000004
-0.2
-0.2
-0.2
-0.2
0.30000000000000004
0.30000000000000004
-0.4
-0.2
-0.30000000000000004
-0.4
0.5
-0.2
0.5
0.1
0.30000000000000004
-0.4
0.5
-0.30000000000000004
-0.2
0.5
-0.2
-0.4
-0.4
-0.30000000000000004
0.30000000000000004
0.2
0.1
0.0
0.5
0.1
-0.1
-0.30000000000000004
-0.1
-0.1
0.0
0.30000000000000004
-0.30000000000000004
-0.4
-0.1
0.0
0.2
0.30000000000000004
0.1
0.0
-0.30000000000000004
-0.1
0.1
-0.1
-0.4
-0.2
-0.4
0.30000000000000004
0.30000000000000004
0.1
0.0
-0.30000000000000004
-0.30000000000000004
-0.1
-0.30000000000000004
0.30000000000000004
0.2
0.5
-0.4
0.2
0.30000000000000004
-0.4
0.4
0.1
-0.1
-0.2
0.1
-0.30000000000000004
0.1
0.2
-0.4
0.2
0.5
0.4
0.30000000000000004
-0.1
0.5
-0.2
-0.1
-0.2
0.30000000000000004
-0.4
0.2
-0.2
0.0
0.30000000000000004
0.2
0.0
0.2
-0.4
-0.30000000000000004
-0.30000000000000004
0.30000000000000004
-0.2
0.2
0.30000000000000004
0.4
-0.30000000000000004
0.2
0.1
-0.2
-0.30000000000000004
-0.4
-0.2
-0.1
-0.2
0.400009596483192
-0.3999958500164951
0.10429486824896436
0.500000531459705
-0.0018786795257711663
-0.4004250052259984
-0.017494760781830463
-0.10002015387653125
-0.19999692246666453
-0.09992560585507566
-0.3996288258557487
-0.4001610360485848
0.29995473238716075
0.29998965354983315
0.20008830849013706
-0.10000237519645949
-0.29999552927450995
0.30000067460799873
-0.19999999831563542
-0.2998307681799423
0.5000009671490631
-0.09990617202886673
-0.39922808746264055
0.5000001523883949
-0.10001797542330709
-0.09999997904314202
1.2979935596190708E-8
0.39383726104198186
0.399999987762431
0.1005454078857618
-0.19999997616520993
0.2999998793231347
-0.10000000691852816
0.19998819418884545
0.29999979471962346
0.1000000023530652
0.4001059096120829
-0.3986136766827627
0.48033992326713
0.39826669488518807
-0.10000517623598044
-0.09978734259662814
-0.09999995517873667
0.4999993568085495
-0.1998884287481616
0.19999997637389694
-0.39987103536632995
0.3968974852698232
-0.2999999896500782
0.10000000855057432
0.4000003997822799
0.4000017827059588
-0.20000127818435318
-0.19997011790184357
-0.19999909499716945
-0.1828896151928917
0.19997657307373737
-0.09998066992946068
-8.747026455249691E-7
-0.39986776587909717
-1.6748440851888604E-5
0.10014814155715407
0.20026221573032696
0.3000000488160498
0.20216135100655502
-0.20001407947426206
0.2004648830933495
-0.2999925062951639
-0.1000000493715786
-0.199999850147599
-0.2000055624227117
0.297868623073712
0.30055786653931177
-0.10000007272037717
0.2999306156749934
0.10003099470779754
-0.3000011260689936
-0.30000006042351984
3.2751884891165614E-4
0.39999999969889294
0.0999993591276317
-0.20436043225305306
0.09999994792934443
-4.6559839915719575E-4
-9.1577426131194E-4
-0.10096470374409823
0.11295519105447302
0.4999999278171412
2.0328868287859994E-5
-0.19933014205167024
-0.19999618463106267
0.4999927250779585
0.09999848180315993
0.1999281034083928
-0.1000000286543227
0.2000000056662575
-0.2996980245091378
9.465876942874375E-4
0.19950658246136763
0.4088337877966141
-0.10003445444433964
-0.19997394469363533
0.1041915160420388
-0.19838317233731037
0.10015725372207016
0.39999072021944587
0.10011697225501585
0.20120099849346804
0.3000570608746242
0.40000285101250743
-0.19999999792647996
0.5000094285487642
0.49999999751178187
0.5000245347467338
0.49898756384872306
-0.10000000485629565
0.5000037464534157
0.400000037413285
-0.20203876911958502
-0.39955078823127166
-0.29928346722278654
-0.20001702953360825
0.09989422727921977
-0.0998994776838692
-0.10000005497364821
0.30000019698657726
-0.4004741336000933
-0.29966076764548116
-0.3985093362130422
-0.30018273962414616
0.08772641413631507
0.0999163410152045
0.10000392500547381
0.40307511955104
-0.29951967998525286
0.30001399538541323
0.29999649708227727
0.19999993185815185
-0.0033776271608848816
0.2999993188410819
-0.300178611514127
-0.09999867498471124
0.5002823545213442
0.2999996155547796
0.09845461238972844
-0.40000368160796723
0.40277375867527554
0.1999727178147301
0.1999999542376295
0.49354437881814806
-0.19999995697927236
0.4999985054138276
0.5000002357098402
0.5048097137492473
0.4999999594952126
0.19990070143782182
0.30000030486393886
0.3038934876024868
-1.655591939927447E-8
-0.40258707051439635
-0.30000000489680656
-0.19999879867107204
-0.001347451189775182
-0.10193866223113004
-0.40001157878088334
0.39999997404439114
-0.4000003504668712
-0.19933240983550732
-0.09999584137675677
-3.9305831283970085E-6
-0.2999992675657466
0.3004842411849399
0.3999764519363425
0.30000635563385813
-0.40500734950472295
0.21083042587010492
-0.2988396758977811
0.387408200054448
1.60394223364825E-9
0.39566583377224657
0.5045759971368093
0.2980485544085584
-5.1292040602732415E-5
-0.2980486764596119
0.39999935307964446
-0.3996713628086483
-0.10000005622855464
-0.09999895021464864
-0.3999999836852885
0.1999997588696425
0.29999978769813507
-0.4000000068778656
-0.40000024909786336
-0.3000050634305748
0.40001718603095743
-0.20000000008388905
0.4894448312671796
0.2999957615271842
-7.717546183406303E-8
0.39912831058188986
0.5000589960415797
-0.09998164096474879
-0.2948358176917224
0.10000062117505418
0.19692769065694862
-0.40064581544341304
0.28384933954008507
-2.3729293981451483E-5
0.5000237146345
6.636164730223594E-5
0.20037613541919805
-0.40017148174894235
-0.10004162234228957
0.29998009510277235
0.5008697775336962
-0.200082499769181
-0.29999636028492194
-0.2999693486919607
0.5000000796729448
0.49885782614458135
-0.09959013212484287
0.100088513527034
-0.099270016654026
0.30065992586767676
0.09889368284108344
-0.2999892521133447
-0.19999998619755094
-0.3106396530692044
0.4000000178057979
-0.1993215542646486
9.210553229207518E-7
0.09995021972599893
-0.10000020452338668
0.3999865874663939
-0.4000059785709254
0.10000022901149941
-0.19472995074119703
0.4050292743514189
-0.2228459160899514
-0.201720821636377
0.09999092710430206
0.10040251662497798
0.10000108165022524
0.39842513692595766
0.500314016051042
0.09999886191260897
-0.19575438525816743
-0.203939099077411
0.300000073522664
-0.09999003342679814
-0.19999688685073355
0.5000025660263572
-0.30001376430860327
-0.19996554221456833
0.30000101130599555
0.12378453972229016
-0.4000246609889523
2.2178632314929217E-5
0.40000027628413826
0.10015879646795546
0.3999570443681069
-0.09991212931535498
-0.29956433539715976
0.4000033641454266
0.3024343191376433
-0.1998398262794269
0.400477811863662
0.2000055288736245
5.9831854667329174E-5
-0.10000649221347246
0.0014380494949892872
0.0968273049288972
-0.39842579633968195
0.3999693575027809
0.4995636904058173
0.09986495100606133
0.1999906298526386
-0.20003342819241648
0.20049014612905716
0.19999640888304615
-0.3970804324293919
0.39442004302548744
0.3000069855932584
-0.3012257139707911
0.49588348879569727
0.3989651830320462
0.519059132724723
0.4999984472595124
0.30060617886519647
-6.889895276463287E-4
0.4000102039694166
-0.19998795885633514
-0.2999989521678856
-3.635952823651978E-4
0.49999972710692536
0.29999991209059323
-0.2971525611073674
0.10097170355290593
0.09947262555992123
-0.28535302529639955
-0.10009248439664428
0.10036823957185784
0.2072734844819029
-0.297359505908908
0.5010797356954663
0.29997600087651594
5.114942563764472E-4
0.3998919990900116
-0.09992750429491873
0.4000140611041009
0.3000000004355615
-0.19986365625669053
0.40000036386088555
-0.09996568104283327
0.19868296015540907
-0.4000007898576263
-0.19998904306697288
0.10000123392940483
0.2957340364015472
-0.3998069891036478
0.5059315856424716
-0.3000381050737367
0.29948849842256775
0.40012706189441044
-0.299995810888414
0.5000026282964523
-6.974481753987495E-4
0.20034182646259752
-0.29784877114969677
-0.3995661926023861
-0.01755947460140115
0.1998899193106075
0.10078673128894272
-0.2969158430775116
0.2012682196626906
0.4999986533373252
0.199059803919839
-0.10000862324366572
-0.4046967476662249
0.09997810071152066
-0.20020029680759174
-0.19999412775852818
-0.1988885079024207
0.39999931003785666
-6.663089166643371E-4
0.5000030499914283
-0.3987338862745046
-0.3000340753611821
-0.20002832724432476
-0.009669012492522956
-0.19999995884535998
0.2999963387549032
0.3000003034132293
-0.09136839924886692
0.19999978267079485
0.0031301105221775514
-0.29998352204171624
-0.2956033779606141
0.5000002681261938
0.0963941182112989
0.2999996521929086
-0.39962042569903394
-0.3996994222123985
-0.0016913556302436941
0.49997295065858294
-0.10000027272843733
0.3999993235331686
0.4015862169034072
0.20007179977153938
-0.10000524886632493
0.10000073704426968
-0.09878253731491256
-1.970765108633516E-4
0.3995327485432993
0.49488584968147153
0.5146719239710215
-0.29556826725881735
-0.012388392856341676
-0.09999979015145963
0.19394878123079415
-0.09488176326498907
0.39771236365312884
0.4999230208065668
-0.2971924630223877
0.30011042862706716
0.3004615143502243
0.2999985710320063
-0.40010578505963423
0.10000012882549614
-1.4668624095492638E-7
0.09999870205444045
0.19999999148939415
0.29999975060353734
2.577761867483767E-6
-0.19998727510810976
-0.20000000436231238
-0.013251860201320477
0.2999947979309296
0.4014314685035681
0.298726085989791
0.40063627031737803
-0.19989177890621856
0.5054552615873693
-0.19999089713307583
0.4965270684130129
0.4992340040213851
-0.0165061875694742
0.09997498234159632
-0.29997761878780127
-0.2986656954846457
-0.09594284784557294
0.39984348155107413
0.199959497642501
-0.09975279306558821
-0.39827906124996476
-0.10008623091115511
-2.1449662980134066E-5
0.10003116069550792
0.19999998702274432
0.39487877103611296
-0.2994783378523954
0.10271567100487694
0.20088189656516478
7.300823123407315E-4
-0.30111607991706985
0.3000165688069377
0.19999993978633548
0.3865060092670491
-0.299999886092364
0.2967218659667033
0.10000247052830426
0.3999360221856887
0.19999965501055642
-0.30001587667739527
0.09999249333209635
0.10000022526356783
0.40659198005732344
-0.190656003751405
-0.2392395297573556
0.3968499741821454
0.09999507349241323
0.10046770095496586
0.30000109072630343
-0.4015792521709791
0.10267537116804322
-0.30000644535285764
0.5046623194298766
0.19088565966322668
0.40000009662512115
-0.19998991405647445
-0.19999255951033734
0.20000350980033982
-1.4663502142697106E-5
-0.39989934589387344
-0.39999732585498643
-0.3664268198287434
-0.10002635193868936
0.20000923007479776
-0.20038843848214727
0.5001608415140912
0.2998855492831913
0.29968146723129274
-0.3995478670183205
0.09997717842782569
-0.09762508744925746
0.3000843103598581
-0.1852685777520766
0.3000011692691468
-0.1999425980467017
-0.10000693040778486
-0.19858967748950762
0.19400969169765164
0.20746746967020574
0.4999671422405576
0.39447983314255103
0.2999801665019391
0.1999601279367028
0.4999658467624122
-0.19942851451319907
0.29999327304418627
-0.0968497057381537
0.4920589274748898
-0.39981294886411095
0.2003761893885227
0.4841481226041513
-0.08845154568605886
0.5318009782306067
0.19999238087646956
6.037094955827667E-4
0.19851498068431223
0.40003633531398436
-0.19998664865675528
-0.2999990369999982
-0.30037659014987955
-0.10000135175734971
0.19999994973023577
-0.09659438065419758
-0.3987198799779104
-0.20034207438709065
0.5253779120441009
0.19987847425070931
0.40028236420842533
0.4090061491103439
-0.19614447202513735
0.0020846747891243842
-1.010759759393315E-4
-0.09878566151421678
-0.10074767586443796
0.2000517231515362
-0.39993515857966294
-2.30376205712417E-9
-0.29966620954730877
1.99092762856877E-6
-0.29996383102335705
-0.10215670988120203
0.19999918700865216
0.500025691421457
0.300001539255148
-0.2106798219246099
-0.1995761071908115
-0.18343458758425962
-0.298584733907438
-0.4005702161491804
-0.09990609281402678
0.20000520035580316
0.40000309606236845
-0.4009842508959779
0.40035916292670987
-0.20209949972728453
0.10147315398834784
0.4685308748457559
-0.0011464576396111989
-0.19879742875928208
0.40575283504918447
0.40319179481313977
-0.20001188761996042
0.39918464192858333
-0.10001886558118783
-0.2103805753518029
0.39997703018802105
0.09975304021620567
0.20000954357041031
-0.19933368398356882
-0.2999983555238405
0.30284725811511326
0.5000047154047178
0.09731698766807079
-3.9191616161732433E-5
0.4999716610141805
-0.014614420921598665
0.20000006571835782
0.19999630279927058
-0.1999993927689072
-0.1875856017441769
-0.2000010670504952
0.3110213976241486
0.10001722935336824
-0.3960357448334821
0.400000356201328
0.39588693920670814
0.19999949469733838
0.3004253290832643
0.09953568253180448
-0.4015090355231644
-0.10005220548152881
0.3000009169517727
0.49999986752799613
-0.3967930915510732
0.4001171270885477
-5.296757155515322E-6
-0.29999894788783676
0.20175806702541682
-1.0232637390543095E-4
0.19599867131758716
0.19152145119590155
0.22143907195483042
-0.09243428009511248
0.48330398993648443
0.40000027049306236
-0.2118948840740404
-0.38880426811833263
0.49995282703407196
0.2999773284084868
-0.39497837338512437
0.4001072220136697
-0.39941787327162415
0.4999974020692697
-0.10010605678764703
0.5000007713894524
0.0999998100858529
0.49999736951073004
0.29999993064485225
0.49999970205727257
0.4000464481012346
-0.2000055755947115
0.4999999942491551
0.18604300582212935
-0.09998611607729568
-0.2981939662576106
0.29882287541882574
-0.2994227257242027
8.986205853110992E-5
0.10029107927909418
-0.0999915183081299
-4.0062224393446844E-4
-0.4001201805352019
0.3996444728904407
-0.10000128836442221
-0.40000133342230165
-0.39873205713194737
-0.09631898326477122
0.3000149633000165
0.3000011199847925
0.20026711183163806
-0.2991488387836637
0.09999626885802604
0.09997491062194148
0.5000005093874657
0.4999999073498007
-0.20397905510846745
0.10011179427244495
0.3026271574778432
0.10015191321919063
0.3000701564446628
0.49999023724184766
-0.3999941790797177
-7.401611334553282E-8
0.19714566233625416
-0.19999990389816188
0.39604342023135064
-0.19999845052701884
0.4999858024596907
0.29999985953394426
-2.464143790336982E-6
0.09999847190302155
-3.747931823906717E-9
0.4013219307985206
-0.2956852781028232
0.4836063863325958
0.49857079581852265
-0.19999585361188812
-0.09993481567001213
-0.299999990923922
-0.3000043890969368
-0.19763864488299906
-0.10000530726546739
0.40041670468804297
0.29482475874063674
0.5000000231024554
-0.3999998806296759
0.1000043273403962
0.5000009437739835
-8.991935391880167E-7
-0.39993380367930587
-0.09999833716098079
-0.09021135955103267
0.399998309050263
0.399987051442483
0.19961128523371552
-0.09999795495386261
-0.3000714950849157
0.39959359654664767
0.5000164683788355
-0.4000261857176008
0.4999405934131018
-0.10007586336071675
-0.1857463896157374
0.19999564039552378
-0.4000024299013699
0.4999995618056867
-0.4000277269844973
-0.402817613231245
0.10589326600988806
-0.10000221526222251
-0.20508385726326522
0.4001152154958782
0.1999694980840642
-7.250451705427226E-7
0.10008133935774306
-0.10000313583885997
2.3072669123778834E-4
-0.20236111555059652
-0.1998199344573707
0.40160190335931334
0.18826463380845324
0.31258327128189556
0.21274184550588202
-0.40000606638304215
0.19999753063038814
-0.2007960297880409
-0.3999738686554323
1.3101995794134436E-6
-0.10000008483211176
0.09998700513248726
0.29999892113572674
-0.29999996236035986
-0.2994418195468305
0.20030841646918188
0.40018530005298897
-0.08926906265950123
-2.9041352648179757E-5
0.2999141246365658
0.5017326646284408
-0.3987849661162303
0.30100493909365944
-0.10007707685245525
0.20070284422940604
-0.10063967495444925
0.0999792274464561
5.0780316236261886E-5
-0.10000000273932338
0.30019744670938264
0.20000162706674304
-0.19999814998052345
-8.396700366107976E-4
0.0999999768662781
0.40001473448842984
0.4000003053257437
-0.4064138583261565
-0.1997691180871634
0.31063382677327056
-0.09854662883370137
-0.30005871457174815
0.09996684529156197
0.500001011244218
4.677659144092544E-7
-0.20028680272057944
-0.3999826635358875
-0.3042507285775865
0.3010393465907352
-0.11390965055284295
-0.40103637695021993
-0.2995841600482251
0.0026686781266969015
0.4019235751504488
0.3999894590427146
0.20012483800874348
-0.10001024233752212
0.494316172314423
0.0999989294765017
-4.666297620229514E-5
0.5000036713289383
0.1995548239188519
-0.29999766556169716
0.30351356703177756
0.500001665413288
0.1960508739425762
-0.3000051162549798
0.3999999882585058
0.29505459157092373
0.10000002456371794
-0.3000000359556331
-0.09999969618213722
0.2037827975046894
-0.20000084972129004
-0.29210871289802853
7.513950856288409E-7
0.09956763312713302
8.807513430775925E-8
-0.3005071790045919
0.09999984250442923
-0.09995424521770203
0.39923510474420354
-0.09981767989291922
-0.200025156140111
0.40000118968021
-0.29999945600517336
-0.1983793084544816
0.30004532731701
-0.2000000478908297
0.30000031506789254
5.406043403296526E-4
0.10009475013695773
-0.20353407722571268
-0.10336439848556912
0.006767147983807473
0.5031339871637086
0.39569238279282554
-0.19999993935547683
-0.10584366530483491
0.10607749514665661
0.20224046338094545
5.430760192009722E-5
-0.2977859103627367
-0.20000320661339946
0.5001206123781501
0.29999883103726344
0.09999972827198804
0.3000006425639527
-0.20000004322790615
0.29999866745628906
0.0999999391554577
0.2999999514537353
-0.09995612966063191
0.19998169951339828
-0.1000000013885354
0.09929486602344939
-0.29998091400822313
0.30037456523882144
9.678942903407161E-5
-0.19942421188618106
-0.2999554986488789
0.20023653317286633
-0.29999782912253475
-0.3003950788406416
-0.10008366465902148
0.40051339269390296
-0.20000105241086547
-0.40000096842193283
0.0010515463381343857
-0.39646375295727465
-0.3999965169002846
0.10000109048218138
0.10026703834843732
-0.29944212632452005
-7.004513550351929E-7
0.39997742951213044
-0.0999995529214128
0.0999998956758889
-0.2031871379058184
-0.09994134153069648
0.5028544457606319
0.400163019017674
-0.39993777877520154
-0.3000092917000986
0.20000087837891461
-0.30000007221242875
-0.30235399498300247
-0.1999999945195421
0.19636691573028056
-0.2999996976487907
-0.10000048320306806
-4.161408656283371E-9
0.4999986715197736
0.29999861371734116
0.2999999958172798
0.20103000260568676
-0.19569902325451682
-0.11522212166338049
0.09991519237863641
0.3999994483088926
0.5000652058478265
-0.19999999094655158
0.39999682810296744
0.5020285823265339
0.499999289206651
0.5001789468362546
-0.10454905392505354
0.09999996349568471
-0.3999998997163665
-0.4000003977818968
5.255717234775533E-7
0.39999914397628444
0.400023719999012
0.4000001759138717
0.007509946604902784
0.09999841129619437
0.29998700877671874
-0.10004369494621813
-0.3999988279153703
1.362144758164988E-5
0.49959364691142905
0.3000419566635685
-2.6220316834819034E-5
0.29994191444657126
0.2998882364917343
0.11425699945203412
0.09999592834395073
0.09999752296880716
-4.1978164233778773E-7
0.29995976105256017
0.09745194837863477
-0.2941145043619965
-0.4000022025774844
-0.00498746119570853
-0.3998846339601609
-0.10002900955409735
0.20000020080056954
0.3000572362564003
-0.20000014433236066
-0.19978350363070727
-0.002339652202311523
1.5023282984409744E-4
-0.19830078355897113
-0.010263914813220558
-0.3881849174096123
0.11212249074738134
0.39999395365370743
-0.10000392990137001
0.09928700738266352
-0.2999796389162955
0.4999969288806737
-0.4000000877145422
-0.20001265652840916
-0.3000004195103087
3.936271864003104E-8
-0.09946892476771237
0.5000629548194708
-0.399873454936789
-0.08981821787846485
-0.20003272356797275
-0.1000655848854349
-0.1982822079981883
-0.3992567517404599
0.300045197097947
-0.4000768110942774
-0.19946372812711594
-0.10010640123321023
0.2999788185008783
-0.09998783140977312
-0.10000000257951473
-0.19986900618686768
0.10000130399671237
0.40000123238703844
0.29917950993036435
-0.1000000199118457
0.20000549305376628
-0.29999983740335207
0.09379411627431657
0.3999968835153165
0.3103487372807521
-0.1985473046571782
-0.20005948257221912
5.751327506556992E-6
-0.30000073759748785
0.5000004598888167
-0.39994718324426826
-0.09999402979668438
0.4959085981071481
0.0010010887052914511
0.38690024219534963
0.3992822074544087
-0.1999492006630968
-0.0973602920909594
0.500697223925606
0.09999012514984472
-0.39990297024684546
0.19999325128932038
-0.1055172187607265
0.4999990882456368
0.19995318576144205
0.5000001813056482
-0.10047885976423365
-0.2999992120652376
0.5033753280082461
-0.3000005711775936
0.0947876729933107
-0.30000497866016435
0.09999998952351366
-0.30459002359265047
0.5000000245970154
0.40000004975493286
0.20000020606841853
0.3016782708339197
0.3999997337230533
-0.09136970425557223
-0.29999937214362926
0.3990086102665621
0.10000006056894913
0.3996193512777917
-0.10000011976068784
0.500045570621054
0.09916153688609548
-0.09976455006050329
0.3999747620160094
0.20000114711509326
5.045912355748332E-7
-0.29897144159653855
0.30004139637723237
0.29999995547568464
0.4000003176069875
0.5002709178330023
0.20005235889893072
0.09607692445202964
-0.10335445976491045
0.10673924102374988
-0.29688780340580045
-0.10327523526351962
0.2000000061826006
0.2945482774566203
0.20614317490490433
-0.39777387757841093
-0.19994743819716643
0.10218964527440684
0.39999673841462186
-0.09988042364960871
0.19999885810579615
0.3000001559763883
0.49999998124120976
-0.10000004301146513
-0.4000012831689625
0.39999993931821654
-0.40000004857092053
-0.29996296469720124
-0.30001795056136377
-0.4000000013831117
0.10033401479500827
0.2000190749855355
0.5003637077873113
-0.40006018221838435
0.5000001133432153
0.3000072406102134
0.40019056154008603
-0.3999998192975403
0.2998175178762638
0.10000379759808924
0.2027059956496274
0.4999996602028608
-0.09999999463966744
0.2999929786405175
0.30035549864183575
0.19999629427066
-0.2999998014483553
0.2000013577768086
1.4688258899899759E-4
-0.0999999577288379
0.3999996500205438
0.30000000694369267
-0.2999999988501184
-0.0017007776036553695
0.10000928624051784
-0.40041205185156464
0.09999014775467353
0.100000623236021
0.499999798210443
-0.09999924525378162
0.1999999922085459
-0.005591823361113846
2.8429842442889674E-9
0.49816393215778776
0.10000000777279947
0.2000001718920686
0.39999999645733164
0.29999999009922135
-0.3000000095492739
0.500000002568797
-0.09978259434143613
-0.19995718522785552
0.39151440754513356
-0.10094067738890039
0.39999887272230583
-0.20001904275744645
0.5000000005318639
-6.909746519803559E-7
0.10133078031125235
0.4999999902334273
0.10012220617378335
-0.4033194126301276
-0.3999999988773677
0.40000000420170306
-0.09999995130776491
-0.400000001558856
-0.20000035108278483
-9.390057812724019E-5
0.4000000024963775
0.20644199370357563
0.40000018545395827
0.29999986030199294
-0.10000376613851097
0.1999970971635431
-1.671720596588459E-5
0.49959797688203256
0.10007503137196873
-0.2999994815180966
-0.2999764373812671
0.19990874714535745
0.31353113099478674
-0.20000043279339566
0.40000070873856797
-1.3378825019963772E-8
0.3000119011542698
-0.30037476741388724
0.09907170435734396
-0.10000000235270677
-0.10493441764349486
0.1999999775637113
-0.30001180874576905
-0.10000000248182797
0.20000034444834044
-0.40000011938277596
-0.2998405800337363
0.2000311682158232
-0.20000215588966808
0.29977895199473037
-0.2040827530712775
-0.28780589091240605
-0.1835885428305168
0.19999408164841984
0.5000002381716964
-0.40267977123225746
-0.3999902810551882
0.20000293049171602
2.766816327002637E-8
0.29999941837237415
0.2999995550167359
0.49999999437134857
0.40052322857456724
-0.3000024657442945
0.20043122371078448
-0.28759941581931076
-0.09999209284480018
-0.19999189315557814
-0.300341143553178
-0.2999608510850541
0.4000069884400513
-0.09999999506927654
-0.09993741551030466
-0.30001089050790425
-0.19999916189982894
0.10000031358921434
-0.10000000030920965
0.5001556773339181
-0.2999996005386755
0.20000008259625984
-0.3000374737416887
1.6342894703971288E-10
1.0602787505130727E-6
0.5000000141747677
-0.006388390237477035
-0.19999949894720806
-0.18983234072325927
-0.40000108662818756
0.3999963676755197
-0.10000343506543372
0.3999992375937378
-0.09999989315467808
0.0999849405074604
0.10000792495467141
0.4998710419387124
0.50136579592152
0.2913375383462871
-0.10016027962029309
1.0652196993848092E-5
-0.09983547357397107
0.2001898063276556
0.1999999163158356
0.4999999295124243
0.1000000077917669
0.2958801121787065
0.4999993793790053
-0.39999992985813465
2.191864211816014E-9
-0.2004335275863675
0.39999905276626807
-0.09942724328783817
0.10000319865175862
0.09972784910396573
-0.20000033364939815
-0.20000000161079165
-0.10237318581888047
-0.20000000051194092
-0.19999999986829725
-0.29999999007833894
-0.09786625789125751
-0.2000001711974846
0.21179962303239253
1.9318712934083427E-9
0.5000186898404829
7.890507944209261E-9
0.19998214359908098
-0.20000000002017054
-0.39995479458403826
0.10152903021779582
-0.3999543855535815
0.5000000022381138
0.10000114012003031
1.334381911190655E-8
4.646386254708933E-4
-0.3999905658832876
-0.30000005994069395
-4.2099148944697985E-10
0.30080217146451915
-0.2999889951369247
0.29960250751626905
0.19689238069277373
0.2067194636411549
-0.1969272921048275
0.3998548982150839
-0.3999999994701054
0.3974087388728069
0.20614932914359244
0.10000688062553975
0.199999239747414
-0.39953597809939223
0.19999427308176093
0.30006128551360595
-0.4000000319991936
0.299999949823055
0.3000000057943154
-1.0567041893455598E-11
-0.4000000114152148
0.49999999999972305
0.400000000024445
0.500005648672451
0.09999400072057255
0.3999999999153167
-0.3016519239608755
-0.2999998166744586
0.2003563756628274
0.4999292946423503
-0.1
-0.4
-0.2
-0.4
0.0
0.2
-0.1
0.1
0.0
-0.4
-0.30000000000000004
-0.4
-0.1
0.2
0.4
0.5
-0.1
-0.4
0.1
0.1
0.30000000000000004
0.1
-0.4
-0.4
0.30000000000000004
0.30000000000000004
-0.4
0.30000000000000004
0.1
-0.4
-0.2
0.2
-0.2
0.1
0.2
-0.30000000000000004
-0.1
0.4
-0.2
0.1
0.30000000000000004
0.5
-0.30000000000000004
0.30000000000000004
0.4
0.2
-0.30000000000000004
-0.1
0.0
0.30000000000000004
0.4
0.5
-0.4
-0.2
0.0
0.2
0.4
0.1
0.0
0.2
0.0
0.4
0.4
0.1
0.5
0.5
0.5
0.2
0.0
0.5
0.0
-0.2
0.30000000000000004
0.2
0.0
0.4
0.0
0.0
0.2
-0.2
-0.1
-0.4
0.1
-0.2
0.30000000000000004
0.4
0.4
0.2
0.1
-0.2
0.1
0.0
0.4
0.5
0.1
0.4
0.1
0.5
0.30000000000000004
-0.30000000000000004
-0.30000000000000004
0.30000000000000004
-0.30000000000000004
0.4
-0.2
-0.2
0.4
-0.30000000000000004
0.4
-0.30000000000000004
0.30000000000000004
0.4
0.2
0.4
-0.2
-0.2
0.2
-0.30000000000000004
0.30000000000000004
0.0
-0.4
0.4
0.5
-0.2
0.0
-0.2
0.30000000000000004
-0.30000000000000004
0.5
0.1
0.1
0.0
-0.2
0.4
0.5
-0.4
0.4
-0.4
0.0
0.1
0.0
-0.1
-0.1
0.1
-0.30000000000000004
-0.2
-0.4
-0.2
0.2
0.4
-0.1
0.0
0.0
-0.4
0.1
0.0
0.30000000000000004
-0.2
0.0
-0.1
0.1
0.0
-0.30000000000000004
-0.2
0.4
0.2
0.0
-0.1
-0.30000000000000004
0.1
0.5
0.1
-0.4
0.1
-0.4
0.30000000000000004
-0.1
0.5
-0.1
-0.30000000000000004
0.0
0.30000000000000004
0.1
0.5
-0.30000000000000004
-0.30000000000000004
0.4
0.1
0.2
0.30000000000000004
0.2
-0.1
0.4
-0.30000000000000004
-0.4
0.30000000000000004
0.30000000000000004
0.30000000000000004
-0.30000000000000004
-0.4
0.5
0.1
0.30000000000000004
0.1
-0.1
0.0
-0.2
0.4
0.2
0.30000000000000004
0.4
0.5
-0.1
-0.30000000000000004
-0.4
0.1
0.0
0.2
0.1
-0.2
0.1
-0.2
-0.30000000000000004
0.1
-0.30000000000000004
0.30000000000000004
-0.4
0.1
0.5
0.0
-0.1
-0.30000000000000004
0.0
0.30000000000000004
0.1
0.4
0.0
0.2
0.0
0.30000000000000004
0.1
0.30000000000000004
-0.2
0.30000000000000004
-0.4
-0.30000000000000004
-0.4
-0.4
-0.1
0.4
-0.4
-0.30000000000000004
-0.2
-0.30000000000000004
0.30000000000000004
0.5
0.0
-0.30000000000000004
0.2
0.1
0.5
0.30000000000000004
-0.4
-0.2
0.5
0.30000000000000004
0.4
0.5
-0.4
0.30000000000000004
0.0
-0.1
0.0
0.30000000000000004
0.5
0.4
0.4
0.1
0.30000000000000004
0.2
-0.4
-0.1
0.5
0.30000000000000004
-0.2
0.1
0.0
0.30000000000000004
-0.2
0.2
-0.30000000000000004
-0.4
-0.2
-0.2
0.4
-0.1
0.1
-0.30000000000000004
0.0
-0.2
-0.30000000000000004
0.4
-0.30000000000000004
-0.1
-0.4
0.1
0.2
0.4
0.2
-0.1
0.30000000000000004
0.5
-0.1
0.4
-0.4
0.30000000000000004
-0.2
0.4
-0.1
-0.1
-0.1
-0.4
0.30000000000000004
-0.1
0.30000000000000004
0.2
0.2
0.5
0.2
0.5
-0.30000000000000004
-0.2
0.2
0.1
0.5
0.0
0.1
-0.30000000000000004
-0.1
-0.2
0.5
-0.4
0.5
0.2
0.1
0.5
0.30000000000000004
-0.4
-0.1
0.5
0.30000000000000004
-0.30000000000000004
0.1
0.0
0.5
-0.1
0.4
-0.2
-0.4
0.5
0.5
0.1
0.2
-0.2
0.30000000000000004
-0.30000000000000004
0.4
0.0
0.30000000000000004
0.0
0.1
0.30000000000000004
0.0
0.1
0.2
-0.4
0.2
-0.2
0.2
-0.4
-0.2
-0.1
0.30000000000000004
0.2
0.0
-0.30000000000000004
-0.30000000000000004
0.0
-0.4
0.2
0.0
-0.4
0.2
-0.2
0.0
0.0
-0.30000000000000004
0.4
-0.1
0.1
-0.2
0.0
-0.30000000000000004
0.5
-0.4
0.4
0.4
0.4
-0.30000000000000004
0.30000000000000004
-0.2
-0.30000000000000004
-0.1
0.2
0.4
0.5
-0.4
-0.1
0.1
0.4
0.0
-0.1
0.1
0.0
-0.30000000000000004
0.2
0.1
0.1
0.2
-0.2
0.30000000000000004
-0.30000000000000004
0.2
-0.30000000000000004
0.30000000000000004
-0.1
-0.2
-0.4
0.1
-0.2
-0.1
-0.4
-0.30000000000000004
0.5
0.4
0.0
0.1
0.2
0.5
0.2
0.4
-0.4
0.5
0.30000000000000004
-0.2
-0.30000000000000004
0.30000000000000004
0.0
-0.30000000000000004
-0.2
0.30000000000000004
0.5
0.0
0.2
0.1
0.4
-0.30000000000000004
0.0
0.30000000000000004
-0.30000000000000004
0.1
0.2
-0.4
-0.4
-0.2
0.1
-0.2
0.4
-0.4
0.30000000000000004
-0.30000000000000004
-0.30000000000000004
-0.1
0.30000000000000004
-0.2
-0.4
-0.30000000000000004
-0.1
-0.4
0.5
-0.30000000000000004
0.2
-0.30000000000000004
0.4
-0.2
0.2
0.5
0.2
0.4
0.4
0.2
-0.4
-0.30000000000000004
0.4
0.5
-0.30000000000000004
0.0
0.5
0.4
-0.2
0.2
0.4
-0.2
-0.4
-0.1
-0.2
0.4
-0.30000000000000004
0.4
0.30000000000000004
0.30000000000000004
0.5
-0.2
-0.1
0.5
0.5
-0.4
-0.30000000000000004
-0.2
0.30000000000000004
-0.1
-0.2
0.30000000000000004
-0.30000000000000004
0.4
-0.30000000000000004
-0.30000000000000004
0.2
-0.30000000000000004
-0.30000000000000004
0.30000000000000004
0.5
0.1
0.2
-0.2
-0.2
0.4
0.0
-0.30000000000000004
-0.4
0.2
0.30000000000000004
0.4
-0.30000000000000004
0.1
-0.4
0.0
0.30000000000000004
-0.4
-0.4
-0.4
-0.1
-0.4
-0.1
0.5
0.1
-0.4
0.0
-0.2
0.0
0.2
0.2
0.5
0.1
-0.30000000000000004
-0.1
-0.1
0.2
0.4
0.1
-0.30000000000000004
-0.4
0.0
0.5
0.30000000000000004
0.30000000000000004
0.0
0.4
-0.30000000000000004
0.30000000000000004
0.5
0.30000000000000004
-0.30000000000000004
-0.4
0.4
0.2
0.2
-0.30000000000000004
0.4
0.0
-0.2
0.4
0.5
0.1
0.5
-0.4
-0.30000000000000004
0.5
0.5
-0.4
-0.4
0.2
-0.4
0.2
0.0
-0.2
0.2
-0.30000000000000004
0.1
0.30000000000000004
-0.30000000000000004
-0.4
-0.30000000000000004
0.2
0.1
-0.30000000000000004
0.2
0.1
-0.1
0.1
0.2
0.30000000000000004
0.5
-0.1
-0.2
0.30000000000000004
0.1
0.2
-0.30000000000000004
0.5
0.4
0.30000000000000004
0.5
0.0
0.0
0.4
0.4
-0.2
-0.30000000000000004
0.2
0.5
-0.4
0.1
0.2
0.0
-0.4
0.2
0.30000000000000004
-0.4
-0.30000000000000004
-0.4
-0.1
-0.2
-0.1
-0.30000000000000004
0.30000000000000004
-0.30000000000000004
0.4
-0.30000000000000004
-0.4
0.2
-0.30000000000000004
0.2
0.30000000000000004
-0.4
0.1
0.2
-0.4
0.5
0.1
-0.4
0.30000000000000004
-0.30000000000000004
0.2
0.0
0.0
0.5
-0.2
0.30000000000000004
0.4
-0.4
0.1
-0.4
0.2
-0.1
-0.4
0.2
-0.30000000000000004
-0.2
-0.30000000000000004
0.2
0.5
0.5
-0.30000000000000004
0.0
0.4
0.1
-0.2
0.1
0.30000000000000004
0.1
0.30000000000000004
0.0
0.2
0.0
0.30000000000000004
0.30000000000000004
0.4
0.5
0.5
0.2
-0.2
0.5
0.5
-0.2
0.0
0.1
0.1
-0.2
-0.2
-0.30000000000000004
-0.1
0.0
0.1
-0.30000000000000004
0.5
-0.4
0.1
-0.4
0.4
0.4
0.5
-0.2
0.5
0.5
-0.4
-0.4
-0.2
-0.30000000000000004
-0.4
0.2
0.30000000000000004
-0.2
0.0
-0.2
0.4
0.5
-0.1
0.5
-0.2
0.2
-0.4
0.5
-0.4
-0.30000000000000004
0.4
0.1
0.0
0.5
-0.1
-0.2
-0.30000000000000004
-0.30000000000000004
0.0
-0.1
0.30000000000000004
0.2
-0.2
0.30000000000000004
0.2
0.4
-0.2
0.0
-0.1
0.30000000000000004
0.4
0.30000000000000004
0.4
0.0
-0.1
0.1
-0.30000000000000004
0.1
0.2
-0.30000000000000004
-0.1
0.0
-0.4
0.0
0.0
-0.1
-0.2
0.0
0.2
0.5
0.4
0.0
0.1
-0.1
0.5
0.0
0.5
-0.1
-0.2
0.4
0.0
-0.2
0.4
0.1
-0.4
0.2
-0.2
0.1
0.1
0.30000000000000004
-0.2
0.2
-0.1
0.4
0.1
-0.30000000000000004
-0.1
-0.30000000000000004
0.1
-0.2
0.2
-0.4
0.30000000000000004
0.5
-0.4
0.2
-0.4
0.1
0.2
0.4
0.30000000000000004
0.2
-0.2
-0.1
-0.4
0.30000000000000004
0.5
-0.4
0.0
-0.2
0.2
-0.1
0.5
-0.4
-0.30000000000000004
-0.2
0.2
0.1
0.0
0.1
0.5
0.4
0.1
0.1
0.1
0.2
-0.2
-0.2
-0.4
0.30000000000000004
0.0
0.2
-0.1
-0.30000000000000004
-0.4
-0.4
0.5
-0.1
0.2
0.30000000000000004
0.5
0.30000000000000004
0.2
-0.30000000000000004
0.5
-0.30000000000000004
0.1
-0.1
0.1
0.5
-0.30000000000000004
0.1
0.1
-0.30000000000000004
0.2
-0.2
0.1
0.30000000000000004
-0.2
-0.30000000000000004
0.1
0.30000000000000004
-0.4
0.30000000000000004
0.5
-0.1
0.30000000000000004
0.1
0.1
0.30000000000000004
-0.4
0.2
-0.4
-0.2
-0.4
0.1
-0.4
-0.30000000000000004
0.2
0.1
0.0
0.2
-0.30000000000000004
0.1
0.4
-0.4
-0.4
-0.2
0.5
0.4
0.0
0.4
0.0
0.1
-0.2
0.4
0.0
0.0
-0.2
0.30000000000000004
-0.30000000000000004
-0.2
0.30000000000000004
-0.2
0.30000000000000004
0.5
0.4
0.2
-0.1
-0.30000000000000004
-0.4
0.0
-0.30000000000000004
0.2
-0.4
0.30000000000000004
-0.1
-0.30000000000000004
0.5
0.1
-0.1
-0.2
0.4
0.2
0.0
-0.2
0.1
-0.2
0.1
-0.1
-0.1
-0.30000000000000004
-0.4
0.30000000000000004
-0.2
-0.2
0.2
-0.1
0.2
-0.2
0.4
0.4
-0.2
-0.30000000000000004
0.4
0.30000000000000004
0.4
-0.1
-0.4
0.30000000000000004
0.4
-0.1
-0.2
-0.30000000000000004
-0.30000000000000004
0.5
-0.2
0.4
0.5
0.4
0.0
0.4
0.0
0.1
0.1
0.2
-0.4
-0.4
0.5
0.4
-0.30000000000000004
0.2
-0.2
-0.30000000000000004
0.30000000000000004
0.4
0.2
0.2
0.5
0.30000000000000004
-0.4
0.5
-0.4
0.5
0.30000000000000004
-0.30000000000000004
0.2
-0.4
0.1
-0.4
0.30000000000000004
-0.30000000000000004
-0.30000000000000004
0.2
0.4
-0.30000000000000004
0.0
0.1
0.5
-0.4
-0.2
-0.30000000000000004
-0.1
-0.2
0.5
-0.1
-0.30000000000000004
0.5
0.1
0.30000000000000004
0.5
0.1
-0.4
-0.30000000000000004
-0.1
0.2
0.2
-0.1
0.30000000000000004
-0.2
0.30000000000000004
-0.2
0.0
0.4
0.1
-0.2
0.30000000000000004
-0.4
